{"learner":{"attributes":{"scikit_learn":"{\"_estimator_type\": \"classifier\"}"},"feature_names":[],"feature_types":[],"gradient_booster":{"model":{"gbtree_model_param":{"num_parallel_tree":"1","num_trees":"100"},"iteration_indptr":[0,1,2,3,4,5,6,7,8,9,10,11,12,13,14,15,16,17,18,19,20,21,22,23,24,25,26,27,28,29,30,31,32,33,34,35,36,37,38,39,40,41,42,43,44,45,46,47,48,49,50,51,52,53,54,55,56,57,58,59,60,61,62,63,64,65,66,67,68,69,70,71,72,73,74,75,76,77,78,79,80,81,82,83,84,85,86,87,88,89,90,91,92,93,94,95,96,97,98,99,100],"tree_info":[0,0,0,0,0,0,0,0,0,0,0,0,0,0,0,0,0,0,0,0,0,0,0,0,0,0,0,0,0,0,0,0,0,0,0,0,0,0,0,0,0,0,0,0,0,0,0,0,0,0,0,0,0,0,0,0,0,0,0,0,0,0,0,0,0,0,0,0,0,0,0,0,0,0,0,0,0,0,0,0,0,0,0,0,0,0,0,0,0,0,0,0,0,0,0,0,0,0,0,0],"trees":[{"base_weights":[-8.963181E-5,1.1792179E-2,-5.0443524E-1,2.813402E-2,-2.5834402E-1,-7.292051E-1,2.1986257E-2,4.7879163E-2,-2.7641043E-1,-1.0823888E-1,-2.7750337E-1,-8.270749E-1,-4.9670625E-2,7.646259E-2,-9.200943E-2,-3.6528856E-1,1.9635458E-1,-2.2110483E-1,1.663912E-1,-3.0235592E-1,-1.1740481E-1,9.305934E-2,-1.4685395E-1,-1.4194454E-1,4.829413E-1,-4.396583E-1,7.422037E-2,2.0517942E-2,8.385722E-2,-3.2356817E-1,6.754631E-2,2.8252092E-1,-4.9670625E-2,3.8141433E-2,-1.6981777E-2,2.8621766E-3,-2.2401385E-1,-2.2358121E-2,-2.3276582E-1,1.9373651E-1,1.8462913E-2,-1.7185187E-1,2.3944587E-2,-1.3071229E-1,2.1986257E-2,1.0786138E-1,1.8462913E-2],"categories":[],"categories_nodes":[],"categories_segments":[],"categories_sizes":[],"default_left":[0,0,0,0,0,0,0,0,0,0,0,0,0,0,0,0,0,0,0,0,0,0,0,0,0,0,0,0,0,0,0,0,0,0,0,0,0,0,0,0,0,0,0,0,0,0,0],"id":0,"left_children":[1,3,5,7,9,11,-1,13,15,17,-1,19,-1,21,23,25,27,29,31,-1,-1,33,35,37,39,41,-1,-1,-1,43,-1,45,-1,-1,-1,-1,-1,-1,-1,-1,-1,-1,-1,-1,-1,-1,-1],"loss_changes":[2.4026716E0,1.7365376E0,1.2517881E0,2.239824E0,2.1458151E0,2.3458076E-1,0E0,1.4008558E0,1.0252503E0,6.397158E-1,0E0,3.7881374E-2,0E0,1.0884653E0,1.7795646E0,9.950905E-1,2.6022345E-2,7.228484E-1,2.8718603E-1,0E0,0E0,1.3870685E0,1.9255277E0,2.318725E0,3.0265367E-1,1.2707014E0,0E0,0E0,0E0,5.6468654E-1,0E0,6.278974E-2,0E0,0E0,0E0,0E0,0E0,0E0,0E0,0E0,0E0,0E0,0E0,0E0,0E0,0E0,0E0],"parents":[2147483647,0,0,1,1,2,2,3,3,4,4,5,5,7,7,8,8,9,9,11,11,13,13,14,14,15,15,16,16,17,17,18,18,21,21,22,22,23,23,24,24,25,25,29,29,31,31],"right_children":[2,4,6,8,10,12,-1,14,16,18,-1,20,-1,22,24,26,28,30,32,-1,-1,34,36,38,40,42,-1,-1,-1,44,-1,46,-1,-1,-1,-1,-1,-1,-1,-1,-1,-1,-1,-1,-1,-1,-1],"split_conditions":[1E0,1E0,1E0,1E0,1E0,1E0,2.1986257E-2,1E0,1E0,1E0,-2.7750337E-1,1E0,-4.9670625E-2,1E0,1E0,1E0,1E0,1E0,1E0,-3.0235592E-1,-1.1740481E-1,1E0,1E0,1E0,1E0,1E0,7.422037E-2,2.0517942E-2,8.385722E-2,1E0,6.754631E-2,1E0,-4.9670625E-2,3.8141433E-2,-1.6981777E-2,2.8621766E-3,-2.2401385E-1,-2.2358121E-2,-2.3276582E-1,1.9373651E-1,1.8462913E-2,-1.7185187E-1,2.3944587E-2,-1.3071229E-1,2.1986257E-2,1.0786138E-1,1.8462913E-2],"split_indices":[263,46,50,265,270,318,0,231,2,290,0,305,0,201,59,48,300,2,183,0,0,50,261,29,290,54,0,0,0,293,0,211,0,0,0,0,0,0,0,0,0,0,0,0,0,0,0],"split_type":[0,0,0,0,0,0,0,0,0,0,0,0,0,0,0,0,0,0,0,0,0,0,0,0,0,0,0,0,0,0,0,0,0,0,0,0,0,0,0,0,0,0,0,0,0,0,0],"sum_hessian":[3.989512E2,3.9072284E2,8.228369E0,3.692792E2,2.1443626E1,5.7349234E0,2.493445E0,3.4758624E2,2.1692972E1,1.8451492E1,2.992134E0,4.488201E0,1.2467225E0,2.8899026E2,5.859596E1,1.8451492E1,3.2414784E0,1.3215259E1,5.2362347E0,2.2441006E0,2.2441006E0,2.695414E2,1.9448872E1,5.4606445E1,3.989512E0,1.6706081E1,1.7454115E0,1.994756E0,1.2467225E0,1.0971158E1,2.2441006E0,3.989512E0,1.2467225E0,2.196725E2,4.98689E1,1.6207392E1,3.2414784E0,5.0367588E1,4.2388563E0,2.493445E0,1.496067E0,1.3215259E1,3.490823E0,8.477713E0,2.493445E0,2.493445E0,1.496067E0],"tree_param":{"num_deleted":"0","num_feature":"362","num_nodes":"47","size_leaf_vector":"1"}},{"base_weights":[-2.4974074E-3,6.948534E-3,-4.0752923E-1,2.3391161E-2,-2.1033159E-1,-5.914013E-1,1.7263567E-2,6.458194E-3,2.7254763E-1,2.8398405E-3,-5.3575873E-1,-3.426095E-1,-2.80161E-1,-1.30528705E-2,1.8581215E-1,1.5194578E-1,2.7247962E-1,8.770461E-2,-1.858215E-1,-6.7604893E-1,1.866506E-2,-1.1762487E-1,-2.8867953E-2,2.6399931E-2,-1.3246635E-1,2.2167885E-1,-1.0523774E-1,2.8840434E-2,2.4134201E-1,2.0251307E-1,-2.902185E-1,-8.381447E-1,-4.0004108E-2,1.444212E-3,1.0968045E-1,-2.6401322E-2,-1.7527787E-1,8.109424E-2,-5.6746572E-2,3.3516835E-2,-1.8547748E-1,8.272467E-2,-3.2114398E-2,-3.5838496E-2,-1.0848679E-1,-3.7687436E-1,-1.1862711E-1],"categories":[],"categories_nodes":[],"categories_segments":[],"categories_sizes":[],"default_left":[0,0,0,0,0,0,0,0,0,0,0,0,0,0,0,0,0,0,0,0,0,0,0,0,0,0,0,0,0,0,0,0,0,0,0,0,0,0,0,0,0,0,0,0,0,0,0],"id":1,"left_children":[1,3,5,7,9,11,-1,13,15,17,19,21,-1,23,25,27,-1,29,-1,31,-1,-1,-1,33,35,37,-1,39,-1,41,43,45,-1,-1,-1,-1,-1,-1,-1,-1,-1,-1,-1,-1,-1,-1,-1],"loss_changes":[1.5313927E0,1.4032824E0,8.1409454E-1,1.5371937E0,1.9186763E0,2.4461102E-1,0E0,1.2012542E0,1.6398209E0,9.886154E-1,9.600949E-1,2.8306067E-2,0E0,1.4635224E0,7.259214E-1,1.638958E0,0E0,7.723112E-1,0E0,6.753917E-1,0E0,0E0,0E0,1.7099509E0,1.497899E0,6.941198E-1,0E0,1.0583249E0,0E0,3.2882982E-1,8.531362E-3,7.436042E-1,0E0,0E0,0E0,0E0,0E0,0E0,0E0,0E0,0E0,0E0,0E0,0E0,0E0,0E0,0E0],"parents":[2147483647,0,0,1,1,2,2,3,3,4,4,5,5,7,7,8,8,9,9,10,10,11,11,13,13,14,14,15,15,17,17,19,19,23,23,24,24,25,25,27,27,29,29,30,30,31,31],"right_children":[2,4,6,8,10,12,-1,14,16,18,20,22,-1,24,26,28,-1,30,-1,32,-1,-1,-1,34,36,38,-1,40,-1,42,44,46,-1,-1,-1,-1,-1,-1,-1,-1,-1,-1,-1,-1,-1,-1,-1],"split_conditions":[1E0,1E0,1E0,1E0,1E0,1E0,1.7263567E-2,1E0,1E0,1E0,1E0,1E0,-2.80161E-1,1E0,1E0,1E0,2.7247962E-1,1E0,-1.858215E-1,1E0,1.866506E-2,-1.1762487E-1,-2.8867953E-2,1E0,1E0,1E0,-1.0523774E-1,1E0,2.4134201E-1,1E0,1E0,1E0,-4.0004108E-2,1.444212E-3,1.0968045E-1,-2.6401322E-2,-1.7527787E-1,8.109424E-2,-5.6746572E-2,3.3516835E-2,-1.8547748E-1,8.272467E-2,-3.2114398E-2,-3.5838496E-2,-1.0848679E-1,-3.7687436E-1,-1.1862711E-1],"split_indices":[263,117,50,57,293,298,0,236,270,122,32,261,0,112,17,19,0,121,0,330,0,0,0,306,25,224,0,99,0,43,187,19,0,0,0,0,0,0,0,0,0,0,0,0,0,0,0],"split_type":[0,0,0,0,0,0,0,0,0,0,0,0,0,0,0,0,0,0,0,0,0,0,0,0,0,0,0,0,0,0,0,0,0,0,0,0,0,0,0,0,0,0,0,0,0,0,0],"sum_hessian":[3.9852902E2,3.9040698E2,8.122024E0,3.6377103E2,2.663595E1,5.626071E0,2.4959526E0,3.415826E2,2.2188435E1,1.669267E1,9.94328E0,4.4173956E0,1.2086753E0,3.0890546E2,3.2677135E1,1.9691734E1,2.4966998E0,1.5445227E1,1.2474437E0,7.948039E0,1.9952413E0,3.1862462E0,1.2311494E0,2.3277747E2,7.6128006E1,3.117995E1,1.497185E0,1.7444809E1,2.2469263E0,1.2202421E1,3.2428055E0,5.700889E0,2.24715E0,2.1980391E2,1.2973549E1,7.0395065E1,5.73294E0,2.8185354E1,2.994598E0,1.6197529E1,1.2472802E0,9.956212E0,2.2462096E0,1.7443576E0,1.4984478E0,1.9869063E0,3.7139828E0],"tree_param":{"num_deleted":"0","num_feature":"362","num_nodes":"47","size_leaf_vector":"1"}},{"base_weights":[-4.4213296E-3,7.1005877E-3,-2.9172117E-1,2.1008806E-2,-2.1053885E-1,-4.7438937E-1,1.5226096E-2,-8.617548E-3,1.2556063E-1,-1.00738294E-1,-7.299495E-1,-6.1608803E-1,1.4385828E-2,2.4874862E-1,-1.6934527E-1,3.6870525E-4,-4.2711195E-1,1.606353E-1,-5.3888494E-1,1.38330795E-2,-3.6705244E-1,-2.748561E-1,-9.150337E-2,-7.821051E-1,1.3011179E-2,1.82177E-2,1.0159052E-1,1.1264115E-2,-3.8341376E-1,-2.289921E-1,8.368606E-3,1.8173744E-1,-1.8616684E-1,-2.3122178E-1,-3.956324E-2,1.1013233E-1,-1.7713825E-1,-5.397665E-1,3.1165801E-2,-2.700255E-1,-5.222142E-2,5.905234E-3,-1.14847936E-1,-1.7656817E-1,1.013909E-2,6.12221E-2,-1.4556819E-1,5.6086298E-2,-9.544147E-2,-2.5686363E-2,-2.0337757E-1],"categories":[],"categories_nodes":[],"categories_segments":[],"categories_sizes":[],"default_left":[0,0,0,0,0,0,0,0,0,0,0,0,0,0,0,0,0,0,0,0,0,0,0,0,0,0,0,0,0,0,0,0,0,0,0,0,0,0,0,0,0,0,0,0,0,0,0,0,0,0,0],"id":2,"left_children":[1,3,5,7,9,11,13,15,17,19,21,23,-1,25,-1,27,29,31,33,35,37,-1,-1,39,-1,-1,-1,41,43,-1,-1,45,-1,-1,-1,47,-1,49,-1,-1,-1,-1,-1,-1,-1,-1,-1,-1,-1,-1,-1],"loss_changes":[1.3229483E0,1.1686518E0,8.7121916E-1,1.1236874E0,1.2492169E0,7.468586E-1,1.0498544E0,1.065703E0,1.9530085E0,6.2465537E-1,2.8187037E-2,8.764491E-1,0E0,7.210216E-2,0E0,1.1683568E0,9.325446E-1,1.3794993E0,2.9896915E-1,9.4732976E-1,5.558481E-1,0E0,0E0,2.881148E-1,0E0,0E0,0E0,9.0899163E-1,6.800822E-1,0E0,0E0,1.2251828E0,0E0,0E0,0E0,5.174668E-1,0E0,2.3415923E-1,0E0,0E0,0E0,0E0,0E0,0E0,0E0,0E0,0E0,0E0,0E0,0E0,0E0],"parents":[2147483647,0,0,1,1,2,2,3,3,4,4,5,5,6,6,7,7,8,8,9,9,10,10,11,11,13,13,15,15,16,16,17,17,18,18,19,19,20,20,23,23,27,27,28,28,31,31,35,35,37,37],"right_children":[2,4,6,8,10,12,14,16,18,20,22,24,-1,26,-1,28,30,32,34,36,38,-1,-1,40,-1,-1,-1,42,44,-1,-1,46,-1,-1,-1,48,-1,50,-1,-1,-1,-1,-1,-1,-1,-1,-1,-1,-1,-1,-1],"split_conditions":[1E0,1E0,1E0,1E0,1E0,1E0,1E0,1E0,1E0,1E0,1E0,1E0,1.4385828E-2,1E0,-1.6934527E-1,1E0,1E0,1E0,1E0,1E0,1E0,-2.748561E-1,-9.150337E-2,1E0,1.3011179E-2,1.82177E-2,1.0159052E-1,1E0,1E0,-2.289921E-1,8.368606E-3,1E0,-1.8616684E-1,-2.3122178E-1,-3.956324E-2,1E0,-1.7713825E-1,1E0,3.1165801E-2,-2.700255E-1,-5.222142E-2,5.905234E-3,-1.14847936E-1,-1.7656817E-1,1.013909E-2,6.12221E-2,-1.4556819E-1,5.6086298E-2,-9.544147E-2,-2.5686363E-2,-2.0337757E-1],"split_indices":[76,46,273,237,270,89,149,199,196,302,224,300,0,127,0,292,92,100,97,229,265,0,0,3,0,0,0,198,2,0,0,227,0,0,0,247,0,66,0,0,0,0,0,0,0,0,0,0,0,0,0],"split_type":[0,0,0,0,0,0,0,0,0,0,0,0,0,0,0,0,0,0,0,0,0,0,0,0,0,0,0,0,0,0,0,0,0,0,0,0,0,0,0,0,0,0,0,0,0,0,0,0,0,0,0],"sum_hessian":[3.9802698E2,3.8361758E2,1.4409375E1,3.614243E2,2.2193302E1,8.691465E0,5.7179093E0,2.8233728E2,7.9087006E1,1.9306055E1,2.8872468E0,6.695632E0,1.9958339E0,4.482963E0,1.2349463E0,2.7738028E2,4.9570165E0,7.584172E1,3.2452822E0,1.4161621E1,5.144433E0,1.2036686E0,1.6835783E0,5.200451E0,1.495181E0,1.9919071E0,2.491056E0,2.706668E2,6.7134585E0,2.4610384E0,2.4959784E0,7.4594086E1,1.2476335E0,1.4981682E0,1.7471141E0,1.2920399E1,1.2412224E0,3.6570718E0,1.4873614E0,3.9530916E0,1.2473593E0,2.65935E2,4.7318196E0,4.2251873E0,2.488271E0,7.2848465E1,1.7456217E0,1.1433039E1,1.4873601E0,1.2308484E0,2.4262233E0],"tree_param":{"num_deleted":"0","num_feature":"362","num_nodes":"51","size_leaf_vector":"1"}},{"base_weights":[-8.685291E-3,4.0698997E-3,-1.801185E-1,-1.0267061E-2,2.11392E-1,-1.5833842E-2,-4.3603125E-1,-3.410236E-2,9.641634E-2,3.0498207E-1,-3.8293958E-1,6.3128896E-2,-1.7907816E-1,-5.5105203E-1,1.374323E-2,-4.92171E-2,2.3435195E-1,1.4298002E-1,-3.20187E-1,1.16396464E-1,6.0922855E-1,-2.1494979E-3,-1.8996963E-1,1.5670621E-1,-1.4129893E-1,-6.820338E-1,-3.548816E-2,-4.0393207E-2,-3.6861905E-1,4.489785E-1,-2.3990843E-1,1.7624292E-1,-1.9045879E-1,-4.332946E-1,1.36080785E-2,2.28024E-1,-1.02951646E-1,7.7034324E-1,4.1441888E-2,2.514616E-1,-8.382983E-2,-3.1600687E-1,-3.0477494E-1,-8.335711E-3,-7.777333E-2,-2.8721947E-2,-2.8290686E-1,1.641823E-1,-5.274627E-2,1.9354604E-2,-1.9087937E-1,7.017397E-2,-4.6805855E-2,-1.9016322E-1,1.2545811E-2,1.1642804E-2,1.4189555E-1,2.6022536E-1,7.0315115E-2,9.550947E-2,-4.558728E-2,-6.349689E-2,3.8814843E-2,-1.51041E-1,2.0404512E-2],"categories":[],"categories_nodes":[],"categories_segments":[],"categories_sizes":[],"default_left":[0,0,0,0,0,0,0,0,0,0,0,0,0,0,0,0,0,0,0,0,0,0,0,0,0,0,0,0,0,0,0,0,0,0,0,0,0,0,0,0,0,0,0,0,0,0,0,0,0,0,0,0,0,0,0,0,0,0,0,0,0,0,0,0,0],"id":3,"left_children":[1,3,5,7,9,11,13,15,17,19,21,23,-1,25,-1,27,29,31,33,35,37,-1,-1,39,-1,41,-1,43,45,47,49,51,-1,53,-1,55,-1,57,-1,59,61,-1,63,-1,-1,-1,-1,-1,-1,-1,-1,-1,-1,-1,-1,-1,-1,-1,-1,-1,-1,-1,-1,-1,-1],"loss_changes":[8.7227064E-1,1.1077318E0,1.1544517E0,8.903352E-1,1.4575335E0,8.5723627E-1,6.217067E-1,1.1715078E0,1.2866459E0,1.155871E0,3.455881E-1,9.0494657E-1,0E0,4.1614962E-1,0E0,7.5019693E-1,1.6764071E0,1.6184226E0,2.9830652E-1,8.188135E-1,4.9664426E-1,0E0,0E0,3.6068445E-1,0E0,5.921285E-1,0E0,7.2477484E-1,1.0343257E0,7.692125E-1,6.9903386E-1,1.1214709E0,0E0,5.2604026E-1,0E0,5.4783106E-1,0E0,9.336209E-2,0E0,3.4362954E-1,1.6258845E-1,0E0,3.779814E-1,0E0,0E0,0E0,0E0,0E0,0E0,0E0,0E0,0E0,0E0,0E0,0E0,0E0,0E0,0E0,0E0,0E0,0E0,0E0,0E0,0E0,0E0],"parents":[2147483647,0,0,1,1,2,2,3,3,4,4,5,5,6,6,7,7,8,8,9,9,10,10,11,11,13,13,15,15,16,16,17,17,18,18,19,19,20,20,23,23,25,25,27,27,28,28,29,29,30,30,31,31,33,33,35,35,37,37,39,39,40,40,42,42],"right_children":[2,4,6,8,10,12,14,16,18,20,22,24,-1,26,-1,28,30,32,34,36,38,-1,-1,40,-1,42,-1,44,46,48,50,52,-1,54,-1,56,-1,58,-1,60,62,-1,64,-1,-1,-1,-1,-1,-1,-1,-1,-1,-1,-1,-1,-1,-1,-1,-1,-1,-1,-1,-1,-1,-1],"split_conditions":[1E0,1E0,1E0,1E0,1E0,1E0,1E0,1E0,1E0,1E0,1E0,1E0,-1.7907816E-1,1E0,1.374323E-2,1E0,1E0,1E0,1E0,1E0,1E0,-2.1494979E-3,-1.8996963E-1,1E0,-1.4129893E-1,1E0,-3.548816E-2,1E0,1E0,1E0,1E0,1E0,-1.9045879E-1,1E0,1.36080785E-2,1E0,-1.02951646E-1,1E0,4.1441888E-2,1E0,1E0,-3.1600687E-1,1E0,-8.335711E-3,-7.777333E-2,-2.8721947E-2,-2.8290686E-1,1.641823E-1,-5.274627E-2,1.9354604E-2,-1.9087937E-1,7.017397E-2,-4.6805855E-2,-1.9016322E-1,1.2545811E-2,1.1642804E-2,1.4189555E-1,2.6022536E-1,7.0315115E-2,9.550947E-2,-4.558728E-2,-6.349689E-2,3.8814843E-2,-1.51041E-1,2.0404512E-2],"split_indices":[117,57,293,183,252,49,32,145,318,124,273,137,0,330,0,295,50,46,149,293,305,0,0,302,0,19,0,227,49,187,25,312,0,121,0,142,0,326,0,330,200,0,270,0,0,0,0,0,0,0,0,0,0,0,0,0,0,0,0,0,0,0,0,0,0],"split_type":[0,0,0,0,0,0,0,0,0,0,0,0,0,0,0,0,0,0,0,0,0,0,0,0,0,0,0,0,0,0,0,0,0,0,0,0,0,0,0,0,0,0,0,0,0,0,0,0,0,0,0,0,0,0,0,0,0,0,0,0,0,0,0,0,0],"sum_hessian":[3.9756964E2,3.7094626E2,2.6623354E1,3.4784238E2,2.3103893E1,1.6861128E1,9.762226E0,2.8487558E2,6.296681E1,2.0381279E1,2.7226148E0,1.5628753E1,1.2323747E0,7.7650013E0,1.997225E0,2.7046432E2,1.4411246E1,5.7227318E1,5.7394915E0,1.3435763E1,6.945515E0,1.4996916E0,1.2229233E0,1.39001045E1,1.7286489E0,5.5186663E0,2.246335E0,2.6428946E2,6.1748753E0,9.958041E0,4.4532046E0,5.562217E1,1.6051506E0,4.2416954E0,1.497796E0,1.1215411E1,2.2203522E0,4.702126E0,2.2433894E0,9.939265E0,3.9608393E0,1.8780439E0,3.6406224E0,2.5095924E2,1.3330207E1,4.9771037E0,1.1977715E0,8.711582E0,1.2464596E0,2.9922314E0,1.460973E0,4.7647976E1,7.9741926E0,2.7475715E0,1.4941237E0,6.9812975E0,4.2341137E0,3.4574616E0,1.2446643E0,8.706249E0,1.2330161E0,2.4808223E0,1.480017E0,2.146176E0,1.4944463E0],"tree_param":{"num_deleted":"0","num_feature":"362","num_nodes":"65","size_leaf_vector":"1"}},{"base_weights":[-9.579086E-3,-7.401584E-4,-2.322697E-1,1.4247491E-2,-1.6174778E-1,-3.1366286E-1,7.545183E-2,2.5922151E-2,-1.644822E-1,-2.2610612E-1,1.8173765E-1,-4.852411E-1,1.0473885E-2,1.9472321E-2,4.4362417E-1,-2.6420084E-1,1.6219482E-1,-3.0365923E-1,7.889611E-2,1.6582344E-2,9.007962E-2,-6.45956E-1,1.3315978E-2,2.1053442E-1,-1.02985755E-1,6.104408E-3,1.9588535E-1,1.8369447E-1,8.953049E-3,-1.5401167E-1,-5.4157805E-1,1.06374994E-1,-3.6552005E-2,-1.82613E-1,-7.3195934E-1,2.6654205E-1,-9.837931E-2,-7.4271154E-1,-3.415178E-2,-1.312737E-2,1.20987035E-1,-1.9333573E-3,6.798742E-2,3.2652806E-2,1.9821222E-1,-1.9700885E-2,-1.6324456E-1,-3.4035496E-2,-2.3183434E-1,1.0347165E-2,-2.9999414E-2,-2.988929E-2,-1.561161E-1,-2.7936092E-1,-3.0368889E-2,1.8147081E-2,1.3461772E-1,-2.6837885E-1,-1.0627163E-1],"categories":[],"categories_nodes":[],"categories_segments":[],"categories_sizes":[],"default_left":[0,0,0,0,0,0,0,0,0,0,0,0,0,0,0,0,0,0,0,0,0,0,0,0,0,0,0,0,0,0,0,0,0,0,0,0,0,0,0,0,0,0,0,0,0,0,0,0,0,0,0,0,0,0,0,0,0,0,0],"id":4,"left_children":[1,3,5,7,9,11,-1,13,15,17,19,21,23,25,27,29,31,33,35,-1,-1,37,-1,39,-1,41,43,-1,-1,45,47,-1,49,51,53,55,-1,57,-1,-1,-1,-1,-1,-1,-1,-1,-1,-1,-1,-1,-1,-1,-1,-1,-1,-1,-1,-1,-1],"loss_changes":[7.8264636E-1,9.2779595E-1,6.7660177E-1,7.382958E-1,7.6488304E-1,7.5246406E-1,0E0,8.833171E-1,7.499325E-1,6.867517E-1,6.9158316E-2,7.7842426E-1,4.7074547E-1,7.7016747E-1,3.2993412E-1,4.3648088E-1,2.3074876E-1,1.0352299E0,5.8164424E-1,0E0,0E0,2.666812E-1,0E0,2.2431183E-1,0E0,8.457081E-1,8.5895425E-1,0E0,0E0,4.320039E-1,3.5168874E-1,0E0,2.0163E-2,4.782067E-1,4.8828292E-1,1.5988627E-1,0E0,1.3005972E-2,0E0,0E0,0E0,0E0,0E0,0E0,0E0,0E0,0E0,0E0,0E0,0E0,0E0,0E0,0E0,0E0,0E0,0E0,0E0,0E0,0E0],"parents":[2147483647,0,0,1,1,2,2,3,3,4,4,5,5,7,7,8,8,9,9,10,10,11,11,12,12,13,13,14,14,15,15,16,16,17,17,18,18,21,21,23,23,25,25,26,26,29,29,30,30,32,32,33,33,34,34,35,35,37,37],"right_children":[2,4,6,8,10,12,-1,14,16,18,20,22,24,26,28,30,32,34,36,-1,-1,38,-1,40,-1,42,44,-1,-1,46,48,-1,50,52,54,56,-1,58,-1,-1,-1,-1,-1,-1,-1,-1,-1,-1,-1,-1,-1,-1,-1,-1,-1,-1,-1,-1,-1],"split_conditions":[1E0,1E0,1E0,1E0,1E0,1E0,7.545183E-2,1E0,1E0,1E0,1E0,1E0,1E0,1E0,1E0,1E0,1E0,1E0,1E0,1.6582344E-2,9.007962E-2,1E0,1.3315978E-2,1E0,-1.02985755E-1,1E0,1E0,1.8369447E-1,8.953049E-3,1E0,1E0,1.06374994E-1,1E0,1E0,1E0,1E0,-9.837931E-2,1E0,-3.415178E-2,-1.312737E-2,1.20987035E-1,-1.9333573E-3,6.798742E-2,3.2652806E-2,1.9821222E-1,-1.9700885E-2,-1.6324456E-1,-3.4035496E-2,-2.3183434E-1,1.0347165E-2,-2.9999414E-2,-2.988929E-2,-1.561161E-1,-2.7936092E-1,-3.0368889E-2,1.8147081E-2,1.3461772E-1,-2.6837885E-1,-1.0627163E-1],"split_indices":[76,25,242,117,235,127,0,10,290,200,305,2,280,57,89,261,124,112,261,0,0,293,0,273,0,145,270,0,0,66,211,0,270,290,56,6,0,270,0,0,0,0,0,0,0,0,0,0,0,0,0,0,0,0,0,0,0,0,0],"split_type":[0,0,0,0,0,0,0,0,0,0,0,0,0,0,0,0,0,0,0,0,0,0,0,0,0,0,0,0,0,0,0,0,0,0,0,0,0,0,0,0,0,0,0,0,0,0,0,0,0,0,0,0,0,0,0,0,0,0,0],"sum_hessian":[3.9670352E2,3.825239E2,1.4179628E1,3.507823E2,3.1741611E1,1.2438536E1,1.7410933E0,3.3007657E2,2.0705706E1,2.7020544E1,4.7210674E0,7.8082814E0,4.630254E0,3.26088E2,3.9885795E0,1.6009907E1,4.6958E0,2.1546345E1,5.4741993E0,2.9934976E0,1.72757E0,5.82197E0,1.9863113E0,3.2162466E0,1.4140073E0,3.0408054E2,2.2007475E1,2.492591E0,1.4959886E0,1.2571194E1,3.438713E0,1.9876467E0,2.7081532E0,1.7910769E1,3.6355762E0,3.9822457E0,1.4919535E0,4.59135E0,1.2306201E0,1.7200558E0,1.4961908E0,2.886267E2,1.5453819E1,1.9575855E1,2.431619E0,1.1202776E1,1.3684174E0,1.7285675E0,1.7101455E0,1.4928931E0,1.21526E0,1.54179535E1,2.492816E0,2.4007907E0,1.2347853E0,2.4937804E0,1.4884652E0,2.3641596E0,2.2271905E0],"tree_param":{"num_deleted":"0","num_feature":"362","num_nodes":"59","size_leaf_vector":"1"}},{"base_weights":[-8.14916E-3,-9.913931E-4,-2.8061032E-1,5.5105416E-3,-2.820777E-1,-3.8780782E-1,1.0381587E-2,1.3253129E-3,1.4730786E-1,-4.2710024E-1,4.4034556E-2,-5.0973785E-1,4.0303826E-2,1.6289834E-2,-1.06798075E-1,-6.292164E-1,8.9382724E-4,-5.9196E-1,-5.5136908E-2,4.0961698E-2,-9.531447E-2,-1.5800142E-1,2.8069744E-1,-2.2359094E-1,-6.516889E-2,-2.388113E-1,-6.096081E-2,1.6832648E-2,-6.0074862E-2,-1.3238588E-2,-1.4861088E-1,-6.393354E-2,8.6115E-2,1.2053304E-1,1.079665E-2],"categories":[],"categories_nodes":[],"categories_segments":[],"categories_sizes":[],"default_left":[0,0,0,0,0,0,0,0,0,0,0,0,0,0,0,0,0,0,0,0,0,0,0,0,0,0,0,0,0,0,0,0,0,0,0],"id":5,"left_children":[1,3,5,7,9,11,-1,13,-1,15,-1,17,-1,19,21,23,-1,25,-1,27,29,31,33,-1,-1,-1,-1,-1,-1,-1,-1,-1,-1,-1,-1],"loss_changes":[7.739407E-1,7.1036E-1,3.5668832E-1,7.715997E-1,6.092219E-1,5.563338E-1,0E0,6.130261E-1,0E0,5.949377E-1,0E0,6.32782E-2,0E0,9.200897E-1,9.583045E-1,6.0303688E-2,0E0,2.0929945E-1,0E0,1.0094014E0,1.2178323E0,1.0748034E0,1.5550977E-1,0E0,0E0,0E0,0E0,0E0,0E0,0E0,0E0,0E0,0E0,0E0,0E0],"parents":[2147483647,0,0,1,1,2,2,3,3,4,4,5,5,7,7,9,9,11,11,13,13,14,14,15,15,17,17,19,19,20,20,21,21,22,22],"right_children":[2,4,6,8,10,12,-1,14,-1,16,-1,18,-1,20,22,24,-1,26,-1,28,30,32,34,-1,-1,-1,-1,-1,-1,-1,-1,-1,-1,-1,-1],"split_conditions":[1E0,1E0,1E0,1E0,1E0,1E0,1.0381587E-2,1E0,1.4730786E-1,1E0,4.4034556E-2,1E0,4.0303826E-2,1E0,1E0,1E0,8.9382724E-4,1E0,-5.5136908E-2,1E0,1E0,1E0,1E0,-2.2359094E-1,-6.516889E-2,-2.388113E-1,-6.096081E-2,1.6832648E-2,-6.0074862E-2,-1.3238588E-2,-1.4861088E-1,-6.393354E-2,8.6115E-2,1.2053304E-1,1.079665E-2],"split_indices":[191,263,112,325,293,59,0,66,0,318,0,118,0,231,210,80,0,261,0,201,99,303,92,0,0,0,0,0,0,0,0,0,0,0,0],"split_type":[0,0,0,0,0,0,0,0,0,0,0,0,0,0,0,0,0,0,0,0,0,0,0,0,0,0,0,0,0,0,0,0,0,0,0],"sum_hessian":[3.9599188E2,3.8683313E2,9.158769E0,3.7904562E2,7.787481E0,6.6626587E0,2.4961095E0,3.768003E2,2.245354E0,5.8226156E0,1.9648653E0,5.420644E0,1.2420151E0,3.3173654E2,4.5063744E1,3.646104E0,2.1765115E0,3.6769867E0,1.7436568E0,2.721963E2,5.954024E1,4.032719E1,4.736553E0,2.2133858E0,1.4327183E0,1.7242157E0,1.9527711E0,2.5683542E2,1.5360878E1,5.377074E1,5.7694983E0,3.6347466E1,3.979725E0,2.7393115E0,1.997242E0],"tree_param":{"num_deleted":"0","num_feature":"362","num_nodes":"35","size_leaf_vector":"1"}},{"base_weights":[-6.969285E-3,-1.101719E-2,3.3007136E-1,-1.7577963E-2,1.9043024E-1,1.340749E-1,1.3790789E-2,-1.190376E-2,-3.1379852E-1,-3.4081705E-2,2.5286907E-1,1.4100567E-3,-1.2735805E-1,-4.5517945E-1,4.0838003E-2,7.5008646E-2,-1.2058486E-1,-1.0933535E-2,1.6037713E-1,-2.7264193E-2,-2.5304037E-1,-1.897048E-1,-6.7698546E-3,2.0501312E-2,6.694895E-2,-6.4533707E-3,5.2683588E-2,1.864914E-2,2.3424685E-1,1.5717268E-2,-1.9949335E-1,1.4358449E-2,-1.0952527E-2],"categories":[],"categories_nodes":[],"categories_segments":[],"categories_sizes":[],"default_left":[0,0,0,0,0,0,0,0,0,0,0,0,0,0,0,0,0,0,0,0,0,0,0,0,0,0,0,0,0,0,0,0,0],"id":6,"left_children":[1,3,5,7,9,-1,-1,11,13,15,-1,17,19,21,-1,23,-1,25,27,29,-1,-1,-1,31,-1,-1,-1,-1,-1,-1,-1,-1,-1],"loss_changes":[5.444179E-1,5.2228224E-1,1.366831E-1,6.3694555E-1,1.855236E0,0E0,0E0,5.766794E-1,5.1517814E-1,4.4100246E-1,0E0,6.635318E-1,2.7572956E0,4.18895E-1,0E0,6.599639E-2,0E0,6.2316126E-1,1.436146E0,1.816049E0,0E0,0E0,0E0,1.3429783E-2,0E0,0E0,0E0,0E0,0E0,0E0,0E0,0E0,0E0],"parents":[2147483647,0,0,1,1,2,2,3,3,4,4,7,7,8,8,9,9,11,11,12,12,13,13,15,15,17,17,18,18,19,19,23,23],"right_children":[2,4,6,8,10,-1,-1,12,14,16,-1,18,20,22,-1,24,-1,26,28,30,-1,-1,-1,32,-1,-1,-1,-1,-1,-1,-1,-1,-1],"split_conditions":[1E0,1E0,1E0,1E0,1E0,1.340749E-1,1.3790789E-2,1E0,1E0,1E0,2.5286907E-1,1E0,1E0,1E0,4.0838003E-2,1E0,-1.2058486E-1,1E0,1E0,1E0,-2.5304037E-1,-1.897048E-1,-6.7698546E-3,1E0,6.694895E-2,-6.4533707E-3,5.2683588E-2,1.864914E-2,2.3424685E-1,1.5717268E-2,-1.9949335E-1,1.4358449E-2,-1.0952527E-2],"split_indices":[144,309,312,263,92,0,0,242,293,290,0,266,49,318,0,19,0,254,30,190,0,0,0,55,0,0,0,0,0,0,0,0,0],"split_type":[0,0,0,0,0,0,0,0,0,0,0,0,0,0,0,0,0,0,0,0,0,0,0,0,0,0,0,0,0,0,0,0,0],"sum_hessian":[3.9537772E2,3.9164136E2,3.7363553E0,3.8017258E2,1.1468781E1,2.2414231E0,1.494932E0,3.7404773E2,6.124824E0,9.237834E0,2.230948E0,3.362592E2,3.778854E1,4.6514964E0,1.4733275E0,7.7389617E0,1.498872E0,3.1289456E2,2.3364645E1,3.4065174E1,3.723368E0,2.9724717E0,1.6790246E0,6.4897165E0,1.249245E0,2.9694174E2,1.5952815E1,2.1121426E1,2.2432196E0,3.109858E1,2.9665937E0,4.493607E0,1.9961094E0],"tree_param":{"num_deleted":"0","num_feature":"362","num_nodes":"33","size_leaf_vector":"1"}},{"base_weights":[-4.830863E-3,1.0711409E-3,-2.3072882E-1,-1.0998374E-2,1.180572E-1,-8.768461E-2,-4.5975998E-1,2.8590597E-3,-1.6669716E-1,2.534982E-1,-2.1188447E-1,7.237775E-2,-1.4936139E-1,-1.6597854E-1,-4.649253E-2,1.7779285E-2,-1.52739E-1,-2.0461914E-1,8.0519944E-2,1.7929862E-1,1.9513522E-1,-3.783514E-1,6.860239E-2,1.6666271E-1,-2.56602E-2,2.5174689E-2,-2.9745153E-1,-1.9536301E-1,7.354062E-2,-2.6236796E-1,1.6830914E-1,2.2742873E-1,-1.6312797E-1,-5.377104E-1,4.741163E-2,-3.1803902E-2,9.934476E-2,7.0017986E-2,8.008562E-3,2.777188E-3,5.9980426E-2,-1.23713866E-1,2.1268135E-2,-7.449439E-2,5.6768894E-2,-9.6838914E-2,2.1104034E-2,1.0936002E-2,8.0936305E-2,8.585393E-2,-6.870263E-2,-1.7649615E-1,1.0073079E-1,-2.2373383E-1,8.577148E-3],"categories":[],"categories_nodes":[],"categories_segments":[],"categories_sizes":[],"default_left":[0,0,0,0,0,0,0,0,0,0,0,0,0,0,0,0,0,0,0,0,0,0,0,0,0,0,0,0,0,0,0,0,0,0,0,0,0,0,0,0,0,0,0,0,0,0,0,0,0,0,0,0,0,0,0],"id":7,"left_children":[1,3,5,7,9,11,13,15,17,19,21,23,-1,-1,-1,25,27,29,-1,31,-1,33,35,37,-1,39,41,43,-1,45,47,49,51,53,-1,-1,-1,-1,-1,-1,-1,-1,-1,-1,-1,-1,-1,-1,-1,-1,-1,-1,-1,-1,-1],"loss_changes":[5.280404E-1,5.4742587E-1,2.9005724E-1,7.5892675E-1,1.6740011E0,5.2470404E-1,1.8023849E-2,7.5439185E-1,5.292273E-1,6.539179E-1,5.4409266E-1,1.0696529E-1,0E0,0E0,0E0,6.983478E-1,5.301172E-1,6.2583363E-1,0E0,4.2311364E-1,0E0,6.933656E-1,2.6339206E-1,3.3353657E-2,0E0,8.061708E-1,3.2010764E-1,5.813589E-1,0E0,5.0078166E-1,4.6775945E-2,6.2741745E-1,9.333427E-1,6.94641E-1,0E0,0E0,0E0,0E0,0E0,0E0,0E0,0E0,0E0,0E0,0E0,0E0,0E0,0E0,0E0,0E0,0E0,0E0,0E0,0E0,0E0],"parents":[2147483647,0,0,1,1,2,2,3,3,4,4,5,5,6,6,7,7,8,8,9,9,10,10,11,11,15,15,16,16,17,17,19,19,21,21,22,22,23,23,25,25,26,26,27,27,29,29,30,30,31,31,32,32,33,33],"right_children":[2,4,6,8,10,12,14,16,18,20,22,24,-1,-1,-1,26,28,30,-1,32,-1,34,36,38,-1,40,42,44,-1,46,48,50,52,54,-1,-1,-1,-1,-1,-1,-1,-1,-1,-1,-1,-1,-1,-1,-1,-1,-1,-1,-1,-1,-1],"split_conditions":[1E0,1E0,1E0,1E0,1E0,1E0,1E0,1E0,1E0,1E0,1E0,1E0,-1.4936139E-1,-1.6597854E-1,-4.649253E-2,1E0,1E0,1E0,8.0519944E-2,1E0,1.9513522E-1,1E0,1E0,1E0,-2.56602E-2,1E0,1E0,1E0,7.354062E-2,1E0,1E0,1E0,1E0,1E0,4.741163E-2,-3.1803902E-2,9.934476E-2,7.0017986E-2,8.008562E-3,2.777188E-3,5.9980426E-2,-1.23713866E-1,2.1268135E-2,-7.449439E-2,5.6768894E-2,-9.6838914E-2,2.1104034E-2,1.0936002E-2,8.0936305E-2,8.585393E-2,-6.870263E-2,-1.7649615E-1,1.0073079E-1,-2.2373383E-1,8.577148E-3],"split_indices":[191,9,200,25,124,181,56,125,229,184,270,145,0,0,0,198,247,185,0,242,0,185,187,112,0,137,99,243,0,235,211,121,92,17,0,0,0,0,0,0,0,0,0,0,0,0,0,0,0,0,0,0,0,0,0],"split_type":[0,0,0,0,0,0,0,0,0,0,0,0,0,0,0,0,0,0,0,0,0,0,0,0,0,0,0,0,0,0,0,0,0,0,0,0,0,0,0,0,0,0,0,0,0,0,0,0,0,0,0,0,0,0,0],"sum_hessian":[3.948695E2,3.857854E2,9.084102E0,3.5052728E2,3.5258106E1,6.442937E0,2.6411648E0,3.227809E2,2.7746368E1,2.5161146E1,1.0096959E1,5.2268667E0,1.21607E0,1.3972607E0,1.2439042E0,2.9534607E2,2.743486E1,2.6009188E1,1.737181E0,2.2421701E1,2.7394452E0,6.1174107E0,3.979548E0,3.2380786E0,1.9887882E0,2.8947504E2,5.871027E0,2.523991E1,2.1949506E0,2.2778366E1,3.2308197E0,1.9953018E1,2.4686837E0,4.7143407E0,1.4030702E0,2.7480679E0,1.23148E0,1.7407031E0,1.4973754E0,2.6627527E2,2.3199762E1,4.3837123E0,1.4873149E0,2.2496838E1,2.743073E0,1.9302427E1,3.47594E0,1.9962375E0,1.2345823E0,1.8008093E1,1.9449236E0,1.2360232E0,1.2326605E0,3.2158494E0,1.4984912E0],"tree_param":{"num_deleted":"0","num_feature":"362","num_nodes":"55","size_leaf_vector":"1"}},{"base_weights":[-3.879818E-3,3.2387972E-3,-1.8562202E-1,-8.1405025E-3,1.2476387E-1,-2.4498485E-1,7.882242E-2,1.2394186E-3,-1.6142204E-1,2.1954527E-1,-1.7405698E-1,-3.409189E-1,8.0366805E-2,-8.538014E-3,1.7779614E-1,-2.039106E-1,8.064672E-2,3.3421686E-1,-2.307261E-1,4.9634863E-2,-4.3954596E-1,-4.002822E-1,1.3636724E-2,7.72223E-4,-2.4791993E-1,2.6438078E-1,-1.821077E-1,-2.510349E-1,7.851417E-2,4.0759823E-1,-1.08518004E-1,1.3371246E-1,-2.2703914E-1,1.6601624E-1,-5.7409707E-2,-4.8572544E-2,-1.7411983E-1,-6.7226636E-1,-1.7320597E-1,-1.7691759E-3,8.918372E-2,-1.1437528E-2,-1.8755482E-1,1.2029518E-1,-3.8679812E-2,-8.315298E-2,-4.5354934E-3,-5.423476E-2,-2.1276294E-1,1.5605041E-1,-1.3562771E-2,-5.741082E-3,6.731781E-2,6.763725E-2,1.0212995E-2,-2.7626565E-1,-5.4015547E-2,-8.058303E-2,3.3114165E-2],"categories":[],"categories_nodes":[],"categories_segments":[],"categories_sizes":[],"default_left":[0,0,0,0,0,0,0,0,0,0,0,0,0,0,0,0,0,0,0,0,0,0,0,0,0,0,0,0,0,0,0,0,0,0,0,0,0,0,0,0,0,0,0,0,0,0,0,0,0,0,0,0,0,0,0,0,0,0,0],"id":8,"left_children":[1,3,5,7,9,11,-1,13,15,17,19,21,-1,23,25,27,-1,29,31,33,35,37,-1,39,41,43,45,47,-1,49,-1,51,-1,53,-1,-1,-1,55,57,-1,-1,-1,-1,-1,-1,-1,-1,-1,-1,-1,-1,-1,-1,-1,-1,-1,-1,-1,-1],"loss_changes":[5.121192E-1,5.285192E-1,4.6147448E-1,5.0303674E-1,9.649748E-1,7.6504654E-1,0E0,5.721524E-1,4.2362666E-1,1.3826226E0,5.228889E-1,2.9286432E-1,0E0,7.003779E-1,5.9008974E-1,4.8107606E-1,0E0,1.1974487E0,1.1985574E0,1.8540648E-1,6.0875654E-2,5.3096056E-1,0E0,6.0174674E-1,9.07302E-1,8.268006E-1,5.875078E-2,4.415474E-1,0E0,9.955368E-1,0E0,6.294011E-2,0E0,2.55021E-2,0E0,0E0,0E0,3.7538886E-1,2.2065605E-1,0E0,0E0,0E0,0E0,0E0,0E0,0E0,0E0,0E0,0E0,0E0,0E0,0E0,0E0,0E0,0E0,0E0,0E0,0E0,0E0],"parents":[2147483647,0,0,1,1,2,2,3,3,4,4,5,5,7,7,8,8,9,9,10,10,11,11,13,13,14,14,15,15,17,17,18,18,19,19,20,20,21,21,23,23,24,24,25,25,26,26,27,27,29,29,31,31,33,33,37,37,38,38],"right_children":[2,4,6,8,10,12,-1,14,16,18,20,22,-1,24,26,28,-1,30,32,34,36,38,-1,40,42,44,46,48,-1,50,-1,52,-1,54,-1,-1,-1,56,58,-1,-1,-1,-1,-1,-1,-1,-1,-1,-1,-1,-1,-1,-1,-1,-1,-1,-1,-1,-1],"split_conditions":[1E0,1E0,1E0,1E0,1E0,1E0,7.882242E-2,1E0,1E0,1E0,1E0,1E0,8.0366805E-2,1E0,1E0,1E0,8.064672E-2,1E0,1E0,1E0,1E0,1E0,1.3636724E-2,1E0,1E0,1E0,1E0,1E0,7.851417E-2,1E0,-1.08518004E-1,1E0,-2.2703914E-1,1E0,-5.7409707E-2,-4.8572544E-2,-1.7411983E-1,1E0,1E0,-1.7691759E-3,8.918372E-2,-1.1437528E-2,-1.8755482E-1,1.2029518E-1,-3.8679812E-2,-8.315298E-2,-4.5354934E-3,-5.423476E-2,-2.1276294E-1,1.5605041E-1,-1.3562771E-2,-5.741082E-3,6.731781E-2,6.763725E-2,1.0212995E-2,-2.7626565E-1,-5.4015547E-2,-8.058303E-2,3.3114165E-2],"split_indices":[76,55,187,117,121,211,0,326,278,2,261,32,0,196,9,252,0,90,305,253,80,19,0,28,187,50,196,66,0,242,0,89,0,230,0,0,0,89,253,0,0,0,0,0,0,0,0,0,0,0,0,0,0,0,0,0,0,0,0],"split_type":[0,0,0,0,0,0,0,0,0,0,0,0,0,0,0,0,0,0,0,0,0,0,0,0,0,0,0,0,0,0,0,0,0,0,0,0,0,0,0,0,0,0,0,0,0,0,0,0,0,0,0,0,0,0,0,0,0,0,0],"sum_hessian":[3.9437537E2,3.8045557E2,1.391979E1,3.48734E2,3.1721556E1,1.269287E1,1.2269201E0,3.2955887E2,1.9175135E1,2.4284256E1,7.4372997E0,1.0975214E1,1.7176557E0,3.131678E2,1.6391098E1,1.793048E1,1.2446564E0,1.9560488E1,4.723768E0,4.477639E0,2.9596608E0,9.482335E0,1.4928789E0,3.0240323E2,1.076454E1,1.342642E1,2.9646776E0,1.6701082E1,1.2293961E0,1.806953E1,1.4909564E0,3.2311792E0,1.4925888E0,3.2293124E0,1.2483269E0,1.719608E0,1.2400527E0,3.4224775E0,6.059858E0,2.9670932E2,5.6939197E0,7.6252275E0,3.1393125E0,9.950851E0,3.4755688E0,1.4686905E0,1.4959869E0,1.5689906E1,1.0111765E0,1.4352644E1,3.716887E0,1.4969324E0,1.734247E0,1.738101E0,1.4912114E0,1.6952822E0,1.7271951E0,4.5739136E0,1.4859442E0],"tree_param":{"num_deleted":"0","num_feature":"362","num_nodes":"59","size_leaf_vector":"1"}},{"base_weights":[-4.8026727E-3,-1.5499693E-2,1.0147737E-1,-2.8239286E-2,1.5314546E-1,1.6310886E-1,-4.3810403E-1,-1.5998872E-2,-1.7661616E-1,2.3219258E-1,-3.36911E-1,2.6949555E-1,-6.3010134E-2,-2.3109947E-1,2.0972047E-2,-2.758642E-2,1.5419206E-1,-9.5454134E-2,-2.4642763E-1,2.9656285E-1,-8.792333E-2,-1.6140933E-1,-1.4802034E-2,4.1069943E-1,2.7538592E-2,1.06759526E-1,-3.5207614E-1,-2.151533E-2,-3.8750196E-1,2.5180084E-1,-1.2803242E-1,-3.945518E-2,-1.8444881E-1,2.1935031E-1,2.302158E-1,5.555301E-1,-3.0483115E-2,1.3502572E-1,-9.847982E-2,-9.609146E-3,7.7812195E-2,-3.5822663E-2,-1.6004454E-1,-8.09284E-3,1.05323434E-1,-2.575658E-1,1.042935E-2,4.4862088E-2,2.1283172E-1,7.496443E-3,-1.445353E-1,9.819712E-2,-1.3085479E-2,2.05438E-1,-3.2844064E-3,-1.568977E-2,2.389871E-3,7.571089E-2,-5.438097E-2,-1.4249234E-2,1.1341372E-2],"categories":[],"categories_nodes":[],"categories_segments":[],"categories_sizes":[],"default_left":[0,0,0,0,0,0,0,0,0,0,0,0,0,0,0,0,0,0,0,0,0,0,0,0,0,0,0,0,0,0,0,0,0,0,0,0,0,0,0,0,0,0,0,0,0,0,0,0,0,0,0,0,0,0,0,0,0,0,0,0,0],"id":9,"left_children":[1,3,5,7,9,11,13,15,17,19,21,23,25,-1,-1,27,29,31,-1,33,-1,-1,-1,35,37,39,41,43,45,47,-1,49,-1,51,-1,53,55,57,-1,59,-1,-1,-1,-1,-1,-1,-1,-1,-1,-1,-1,-1,-1,-1,-1,-1,-1,-1,-1,-1,-1],"loss_changes":[4.503382E-1,7.767107E-1,1.2762662E0,6.0578007E-1,1.0623784E0,8.166987E-1,7.264575E-1,6.1690795E-1,1.2528559E0,8.4662724E-1,2.0114174E-1,7.6755166E-1,5.99347E-1,0E0,0E0,6.2906486E-1,1.2390602E0,6.6578317E-1,0E0,5.773909E-1,0E0,0E0,0E0,9.321797E-1,4.0661636E-1,1.4419489E-1,1.24883115E-1,5.9530294E-1,9.806563E-1,7.228745E-1,0E0,6.529744E-1,0E0,5.544134E-1,0E0,8.009434E-1,4.181276E-3,3.4206852E-1,0E0,1.1660399E-2,0E0,0E0,0E0,0E0,0E0,0E0,0E0,0E0,0E0,0E0,0E0,0E0,0E0,0E0,0E0,0E0,0E0,0E0,0E0,0E0,0E0],"parents":[2147483647,0,0,1,1,2,2,3,3,4,4,5,5,6,6,7,7,8,8,9,9,10,10,11,11,12,12,15,15,16,16,17,17,19,19,23,23,24,24,25,25,26,26,27,27,28,28,29,29,31,31,33,33,35,35,36,36,37,37,39,39],"right_children":[2,4,6,8,10,12,14,16,18,20,22,24,26,-1,-1,28,30,32,-1,34,-1,-1,-1,36,38,40,42,44,46,48,-1,50,-1,52,-1,54,56,58,-1,60,-1,-1,-1,-1,-1,-1,-1,-1,-1,-1,-1,-1,-1,-1,-1,-1,-1,-1,-1,-1,-1],"split_conditions":[1E0,1E0,1E0,1E0,1E0,1E0,1E0,1E0,1E0,1E0,1E0,1E0,1E0,-2.3109947E-1,2.0972047E-2,1E0,1E0,1E0,-2.4642763E-1,1E0,-8.792333E-2,-1.6140933E-1,-1.4802034E-2,1E0,1E0,1E0,1E0,1E0,1E0,1E0,-1.2803242E-1,1E0,-1.8444881E-1,1E0,2.302158E-1,1E0,1E0,1E0,-9.847982E-2,1E0,7.7812195E-2,-3.5822663E-2,-1.6004454E-1,-8.09284E-3,1.05323434E-1,-2.575658E-1,1.042935E-2,4.4862088E-2,2.1283172E-1,7.496443E-3,-1.445353E-1,9.819712E-2,-1.3085479E-2,2.05438E-1,-3.2844064E-3,-1.568977E-2,2.389871E-3,7.571089E-2,-5.438097E-2,-1.4249234E-2,1.1341372E-2],"split_indices":[185,190,190,0,71,19,312,238,311,30,210,305,89,0,0,199,44,303,0,61,0,0,0,80,3,261,149,7,92,229,0,258,0,293,0,0,56,56,0,236,0,0,0,0,0,0,0,0,0,0,0,0,0,0,0,0,0,0,0,0,0],"split_type":[0,0,0,0,0,0,0,0,0,0,0,0,0,0,0,0,0,0,0,0,0,0,0,0,0,0,0,0,0,0,0,0,0,0,0,0,0,0,0,0,0,0,0,0,0,0,0,0,0,0,0,0,0,0,0,0,0,0,0,0,0],"sum_hessian":[3.937342E2,3.5850504E2,3.522915E1,3.3409946E2,2.440559E1,3.224393E1,2.985219E0,3.0966162E2,2.4437838E1,2.1468819E1,2.936772E0,2.1796886E1,1.0447044E1,1.4926751E0,1.4925439E0,2.907066E2,1.8955015E1,2.2725426E1,1.7124112E0,1.9512972E1,1.9558461E0,1.2156352E0,1.7211368E0,1.3323818E1,8.473068E0,6.9789515E0,3.4680927E0,2.8692648E2,3.7801244E0,1.6713541E1,2.2414746E0,2.1484894E1,1.2405313E0,1.8023155E1,1.489817E0,9.835766E0,3.4880526E0,6.983797E0,1.4892708E0,4.4913383E0,2.4876132E0,2.245851E0,1.2222416E0,2.8369617E2,3.2303078E0,1.2984568E0,2.4816678E0,1.4745403E1,1.9681369E0,1.9576313E1,1.9085823E0,1.2603503E1,5.4196525E0,7.8383026E0,1.9974633E0,1.9955622E0,1.4924904E0,5.241382E0,1.7424151E0,2.4954543E0,1.9958837E0],"tree_param":{"num_deleted":"0","num_feature":"362","num_nodes":"61","size_leaf_vector":"1"}},{"base_weights":[-5.3570447E-3,-2.2592817E-3,-1.13982774E-1,3.2190667E-3,-2.126716E-1,1.5688026E-2,-8.86105E-2,-1.0516935E-1,-1.3389716E-1,7.946332E-3,2.3430456E-1,-3.2082163E-2,-2.0373744E-1,2.2982642E-2,-1.3850322E-1,-1.0149993E-3,1.9644986E-1,5.364315E-2,2.6328224E-1,8.728569E-3,-1.9780956E-1,1.14617825E-1,-4.8121687E-2,-3.6524083E-3,4.523216E-2,8.734119E-2,-5.9509944E-2,5.6645397E-2,-5.6511316E-2,-1.2186847E-2,1.3622613E-1,6.7370184E-2,-1.2638696E-2],"categories":[],"categories_nodes":[],"categories_segments":[],"categories_sizes":[],"default_left":[0,0,0,0,0,0,0,0,0,0,0,0,0,0,0,0,0,0,0,0,0,0,0,0,0,0,0,0,0,0,0,0,0],"id":10,"left_children":[1,3,-1,5,7,9,11,13,-1,15,17,19,-1,21,-1,23,25,27,-1,29,-1,31,-1,-1,-1,-1,-1,-1,-1,-1,-1,-1,-1],"loss_changes":[4.5649758E-1,4.524526E-1,0E0,4.398837E-1,2.0323804E-1,5.702314E-1,1.5114999E0,3.8203734E-1,0E0,5.534238E-1,1.2924378E0,1.1057795E0,0E0,1.3488829E-1,0E0,5.3310037E-1,6.135661E-1,3.647934E-1,0E0,9.2688507E-1,0E0,9.918288E-2,0E0,0E0,0E0,0E0,0E0,0E0,0E0,0E0,0E0,0E0,0E0],"parents":[2147483647,0,0,1,1,3,3,4,4,5,5,6,6,7,7,9,9,10,10,11,11,13,13,15,15,16,16,17,17,19,19,21,21],"right_children":[2,4,-1,6,8,10,12,14,-1,16,18,20,-1,22,-1,24,26,28,-1,30,-1,32,-1,-1,-1,-1,-1,-1,-1,-1,-1,-1,-1],"split_conditions":[1E0,1E0,-1.13982774E-1,1E0,1E0,1E0,1E0,1E0,-1.3389716E-1,1E0,1E0,1E0,-2.0373744E-1,1E0,-1.3850322E-1,1E0,1E0,1E0,2.6328224E-1,1E0,-1.9780956E-1,1E0,-4.8121687E-2,-3.6524083E-3,4.523216E-2,8.734119E-2,-5.9509944E-2,5.6645397E-2,-5.6511316E-2,-1.2186847E-2,1.3622613E-1,6.7370184E-2,-1.2638696E-2],"split_indices":[269,191,0,49,273,42,258,181,0,113,56,201,0,56,0,225,50,89,0,312,0,235,0,0,0,0,0,0,0,0,0,0,0],"split_type":[0,0,0,0,0,0,0,0,0,0,0,0,0,0,0,0,0,0,0,0,0,0,0,0,0,0,0,0,0,0,0,0,0],"sum_hessian":[3.931443E2,3.9091748E2,2.2267942E0,3.8195746E2,8.96004E0,3.3702423E2,4.4933235E1,7.1297755E0,1.8302647E0,3.2649854E2,1.0525685E1,4.19699E1,2.963336E0,5.9327106E0,1.1970648E0,3.126309E2,1.3867647E1,9.063682E0,1.462004E0,4.0332005E1,1.6378958E0,4.2060413E0,1.7266695E0,2.9207684E2,2.055404E1,1.13969555E1,2.470691E0,5.956525E0,3.1071565E0,3.7126682E1,3.2053225E0,2.2177405E0,1.9883007E0],"tree_param":{"num_deleted":"0","num_feature":"362","num_nodes":"33","size_leaf_vector":"1"}},{"base_weights":[-4.6363543E-3,-8.019171E-3,2.769612E-1,7.621957E-4,-1.1937267E-1,1.1151151E-1,1.3240974E-2,3.5870592E-3,-1.1290019E-1,-2.9878901E-2,-7.0857084E-1,1.749071E-2,-7.639308E-2,-8.804647E-2,1.4818433E-1,-8.4170975E-2,-2.597126E-1,4.108453E-3,1.4110988E-1,-3.226943E-2,-6.927331E-1,1.5927156E-2,-3.3690506E-1,1.1225641E-2,-2.1906722E-2,5.821007E-2,-1.8087016E-1,6.2307534E-3,-1.2413935E-1,-3.434983E-2,-2.818871E-1,3.033576E-2,-4.9949512E-2,-1.6866156E-1,-1.4909347E-2],"categories":[],"categories_nodes":[],"categories_segments":[],"categories_sizes":[],"default_left":[0,0,0,0,0,0,0,0,0,0,0,0,0,0,0,0,0,0,0,0,0,0,0,0,0,0,0,0,0,0,0,0,0,0,0],"id":11,"left_children":[1,3,5,7,9,-1,-1,11,-1,13,15,17,19,21,-1,-1,-1,23,25,27,29,31,33,-1,-1,-1,-1,-1,-1,-1,-1,-1,-1,-1,-1],"loss_changes":[3.774043E-1,3.8159516E-1,8.734366E-2,3.876363E-1,1.4829302E0,0E0,0E0,4.0268612E-1,0E0,8.298378E-1,7.117033E-3,5.0941616E-1,1.4363033E0,6.283487E-1,0E0,0E0,0E0,7.2007173E-1,1.3015294E0,1.0426843E0,3.9699304E-1,2.95594E-1,4.340856E-1,0E0,0E0,0E0,0E0,0E0,0E0,0E0,0E0,0E0,0E0,0E0,0E0],"parents":[2147483647,0,0,1,1,2,2,3,3,4,4,7,7,9,9,10,10,11,11,12,12,13,13,17,17,18,18,19,19,20,20,21,21,22,22],"right_children":[2,4,6,8,10,-1,-1,12,-1,14,16,18,20,22,-1,-1,-1,24,26,28,30,32,34,-1,-1,-1,-1,-1,-1,-1,-1,-1,-1,-1,-1],"split_conditions":[1E0,1E0,1E0,1E0,1E0,1.1151151E-1,1.3240974E-2,1E0,-1.1290019E-1,1E0,1E0,1E0,1E0,1E0,1.4818433E-1,-8.4170975E-2,-2.597126E-1,1E0,1E0,1E0,1E0,1E0,1E0,1.1225641E-2,-2.1906722E-2,5.821007E-2,-1.8087016E-1,6.2307534E-3,-1.2413935E-1,-3.434983E-2,-2.818871E-1,3.033576E-2,-4.9949512E-2,-1.6866156E-1,-1.4909347E-2],"split_indices":[144,84,312,269,94,0,0,213,0,56,302,137,136,305,0,0,0,124,12,62,300,302,200,0,0,0,0,0,0,0,0,0,0,0,0],"split_type":[0,0,0,0,0,0,0,0,0,0,0,0,0,0,0,0,0,0,0,0,0,0,0,0,0,0,0,0,0,0,0,0,0,0,0],"sum_hessian":[3.9285486E2,3.8915155E2,3.703334E0,3.616267E2,2.7524822E1,2.2082314E0,1.4951026E0,3.59921E2,1.705715E0,2.4807503E1,2.71732E0,3.0728436E2,5.2636627E1,2.307688E1,1.7306218E0,1.4777718E0,1.2395482E0,2.7820123E2,2.9083132E1,5.010218E1,2.5344481E0,1.6936695E1,6.1401863E0,1.9465208E2,8.354915E1,2.7841862E1,1.2412689E0,4.48174E1,5.284779E0,1.1963305E0,1.3381176E0,1.1848967E1,5.0877275E0,2.904364E0,3.235822E0],"tree_param":{"num_deleted":"0","num_feature":"362","num_nodes":"35","size_leaf_vector":"1"}},{"base_weights":[-5.7887095E-3,-1.8315451E-3,-2.3665985E-1,-4.710686E-3,1.0296619E-1,-3.8610116E-1,5.548743E-2,-7.846761E-3,2.8239113E-1,-1.7892933E-1,-8.836708E-3,-3.0153801E-3,-1.8950036E-1,1.2166104E-1,1.0857288E-2,1.6715687E-2,-4.9837284E-2,-2.5111312E-1,4.035213E-2,1.1402298E-2,-4.4223733E-2,-6.8996293E-3,-1.1352073E-1,-1.0408355E-1,-2.8751665E-3],"categories":[],"categories_nodes":[],"categories_segments":[],"categories_sizes":[],"default_left":[0,0,0,0,0,0,0,0,0,0,0,0,0,0,0,0,0,0,0,0,0,0,0,0,0],"id":12,"left_children":[1,3,5,7,-1,9,-1,11,13,-1,-1,15,17,-1,-1,19,21,23,-1,-1,-1,-1,-1,-1,-1],"loss_changes":[3.5891014E-1,3.8678762E-1,4.8853937E-1,3.4929788E-1,0E0,3.7337953E-1,0E0,3.3494478E-1,1.12427235E-1,0E0,0E0,3.4580326E-1,2.3117405E-1,0E0,0E0,9.262616E-1,9.6972615E-1,1.9705391E-1,0E0,0E0,0E0,0E0,0E0,0E0,0E0],"parents":[2147483647,0,0,1,1,2,2,3,3,5,5,7,7,8,8,11,11,12,12,15,15,16,16,17,17],"right_children":[2,4,6,8,-1,10,-1,12,14,-1,-1,16,18,-1,-1,20,22,24,-1,-1,-1,-1,-1,-1,-1],"split_conditions":[1E0,1E0,1E0,1E0,1.0296619E-1,1E0,5.548743E-2,1E0,1E0,-1.7892933E-1,-8.836708E-3,1E0,1E0,1.2166104E-1,1.0857288E-2,1E0,1E0,1E0,4.035213E-2,1.1402298E-2,-4.4223733E-2,-6.8996293E-3,-1.1352073E-1,-1.0408355E-1,-2.8751665E-3],"split_indices":[199,325,50,144,0,92,0,191,312,0,0,121,59,0,0,4,228,235,0,0,0,0,0,0,0],"split_type":[0,0,0,0,0,0,0,0,0,0,0,0,0,0,0,0,0,0,0,0,0,0,0,0,0],"sum_hessian":[3.923292E2,3.8670886E2,5.620312E0,3.8448703E2,2.22184E0,4.2117195E0,1.4085928E0,3.8129474E2,3.1922946E0,2.2263842E0,1.9853352E0,3.7240656E2,8.888173E0,1.6965318E0,1.4957628E0,2.6245096E2,1.09955605E2,7.6570897E0,1.2310834E0,2.3299364E2,2.9457314E1,1.0264144E2,7.314168E0,5.169518E0,2.4875717E0],"tree_param":{"num_deleted":"0","num_feature":"362","num_nodes":"25","size_leaf_vector":"1"}},{"base_weights":[-4.4000647E-3,-1.4366812E-2,8.326323E-2,-2.171859E-2,2.2807537E-1,1.4423579E-1,-2.1965247E-1,-1.4824533E-2,-2.8936833E-1,4.1913214E-1,-2.54047E-1,1.8289217E-1,-1.00369774E-1,-6.636829E-5,-1.4071812E-1,-4.773164E-1,4.9100135E-2,6.7958707E-1,6.690889E-2,-1.186923E-1,-9.942006E-3,1.2691182E-1,6.052955E-1,-1.16036E-2,1.5851535E-1,-7.906624E-2,-5.392593E-1,5.9846486E-3,-7.5710917E-1,-5.169791E-2,6.353749E-2,2.830184E-1,2.7692096E-2,-1.7588535E-2,6.562053E-2,1.7626598E-1,-1.7236714E-1,2.6104823E-1,2.9901525E-2,-4.2320837E-5,-5.623149E-2,7.297927E-2,-3.6702234E-2,-5.0329305E-3,-1.6689835E-1,-2.6274794E-1,-4.0093053E-2,-2.9682374E-1,-5.2394826E-2,3.879359E-2,1.3818869E-1,-8.764448E-2,2.2391617E-2],"categories":[],"categories_nodes":[],"categories_segments":[],"categories_sizes":[],"default_left":[0,0,0,0,0,0,0,0,0,0,0,0,0,0,0,0,0,0,0,0,0,0,0,0,0,0,0,0,0,0,0,0,0,0,0,0,0,0,0,0,0,0,0,0,0,0,0,0,0,0,0,0,0],"id":13,"left_children":[1,3,5,7,9,11,-1,13,15,17,19,21,-1,23,25,27,29,31,33,-1,-1,35,37,39,41,43,45,-1,47,-1,-1,-1,-1,-1,-1,49,51,-1,-1,-1,-1,-1,-1,-1,-1,-1,-1,-1,-1,-1,-1,-1,-1],"loss_changes":[3.4451658E-1,6.3534683E-1,2.107375E0,6.307964E-1,1.0733173E0,7.69996E-1,0E0,6.2537086E-1,5.698083E-1,6.787722E-1,9.954275E-2,7.7637374E-1,0E0,5.548853E-1,8.2514197E-1,7.964065E-1,1.7962909E-1,5.991547E-1,9.793203E-2,0E0,0E0,5.196536E-1,4.4319344E-1,5.697779E-1,5.193323E-1,9.347799E-1,5.054219E-1,0E0,3.169136E-1,0E0,0E0,0E0,0E0,0E0,0E0,3.267036E-1,1.7550394E-1,0E0,0E0,0E0,0E0,0E0,0E0,0E0,0E0,0E0,0E0,0E0,0E0,0E0,0E0,0E0,0E0],"parents":[2147483647,0,0,1,1,2,2,3,3,4,4,5,5,7,7,8,8,9,9,10,10,11,11,13,13,14,14,15,15,16,16,17,17,18,18,21,21,22,22,23,23,24,24,25,25,26,26,28,28,35,35,36,36],"right_children":[2,4,6,8,10,12,-1,14,16,18,20,22,-1,24,26,28,30,32,34,-1,-1,36,38,40,42,44,46,-1,48,-1,-1,-1,-1,-1,-1,50,52,-1,-1,-1,-1,-1,-1,-1,-1,-1,-1,-1,-1,-1,-1,-1,-1],"split_conditions":[1E0,1E0,1E0,1E0,1E0,1E0,-2.1965247E-1,1E0,1E0,1E0,1E0,1E0,-1.00369774E-1,1E0,1E0,1E0,1E0,1E0,1E0,-1.186923E-1,-9.942006E-3,1E0,1E0,1E0,1E0,1E0,1E0,5.9846486E-3,1E0,-5.169791E-2,6.353749E-2,2.830184E-1,2.7692096E-2,-1.7588535E-2,6.562053E-2,1E0,1E0,2.6104823E-1,2.9901525E-2,-4.2320837E-5,-5.623149E-2,7.297927E-2,-3.6702234E-2,-5.0329305E-3,-1.6689835E-1,-2.6274794E-1,-4.0093053E-2,-2.9682374E-1,-5.2394826E-2,3.879359E-2,1.3818869E-1,-8.764448E-2,2.2391617E-2],"split_indices":[300,136,136,271,121,30,0,211,290,56,112,330,0,311,71,187,247,29,125,0,0,56,97,181,273,317,330,0,124,0,0,0,0,0,0,224,3,0,0,0,0,0,0,0,0,0,0,0,0,0,0,0,0],"split_type":[0,0,0,0,0,0,0,0,0,0,0,0,0,0,0,0,0,0,0,0,0,0,0,0,0,0,0,0,0,0,0,0,0,0,0,0,0,0,0,0,0,0,0,0,0,0,0,0,0,0,0,0,0],"sum_hessian":[3.9194183E2,3.5268048E2,3.9261364E1,3.4318423E2,9.496245E0,3.7295776E1,1.9655898E0,3.3559543E2,7.5887966E0,6.894662E0,2.6015837E0,3.508147E1,2.214305E0,3.0127795E2,3.4317474E1,4.6155853E0,2.9732113E0,3.4293637E0,3.465298E0,1.1033734E0,1.4982102E0,3.212452E1,2.956953E0,2.817097E2,1.9568281E1,3.0757816E1,3.5596564E0,1.9963135E0,2.619272E0,1.2342076E0,1.7390037E0,1.9479573E0,1.4814065E0,2.2328846E0,1.2324134E0,2.792966E1,4.194856E0,1.4673392E0,1.4896139E0,2.654087E2,1.630099E1,1.5135087E1,4.4331937E0,2.8122553E1,2.6352644E0,1.311863E0,2.2477934E0,1.3729978E0,1.2462742E0,2.5220066E1,2.709596E0,2.7018726E0,1.4929836E0],"tree_param":{"num_deleted":"0","num_feature":"362","num_nodes":"53","size_leaf_vector":"1"}},{"base_weights":[-4.5202584E-3,-9.262683E-3,1.4189707E-1,-1.8560098E-2,9.881716E-2,-2.1908455E-2,1.8727875E-1,-2.7681079E-2,1.2460095E-1,1.2840779E-2,4.1525128E-1,6.910438E-2,-9.948211E-2,-1.3531756E-2,-1.20958544E-1,4.379691E-2,2.185088E-1,-5.7948574E-2,1.3014863E-1,5.990626E-1,-5.172673E-2,4.70182E-3,7.596556E-2,-3.8805557E-3,-2.0116422E-1,-6.305946E-2,-5.55242E-1,1.077463E-1,-1.21619105E-1,-1.0800165E-1,8.969494E-2,7.234694E-1,3.360678E-2,3.2840036E-2,-1.4619493E-2,-4.3680943E-3,9.817549E-2,-2.626189E-2,-1.9786839E-1,-4.8406597E-2,6.568653E-2,-8.099598E-2,-2.4443068E-1,6.508757E-2,-9.09916E-2,-9.227517E-3,-1.09011404E-1,2.6517504E-1,6.162589E-2,1.8020106E-2,-7.1552466E-3],"categories":[],"categories_nodes":[],"categories_segments":[],"categories_sizes":[],"default_left":[0,0,0,0,0,0,0,0,0,0,0,0,0,0,0,0,0,0,0,0,0,0,0,0,0,0,0,0,0,0,0,0,0,0,0,0,0,0,0,0,0,0,0,0,0,0,0,0,0,0,0],"id":14,"left_children":[1,3,5,7,9,11,-1,13,15,17,19,21,-1,23,25,27,-1,29,-1,31,-1,33,-1,35,37,39,41,43,-1,45,-1,47,-1,49,-1,-1,-1,-1,-1,-1,-1,-1,-1,-1,-1,-1,-1,-1,-1,-1,-1],"loss_changes":[2.737453E-1,3.8465723E-1,9.9111426E-1,4.626041E-1,8.199487E-1,3.1043488E-1,0E0,4.3573958E-1,1.0044744E0,7.6676345E-1,7.999413E-1,1.0210292E-1,0E0,5.223286E-1,1.0593357E0,6.124374E-1,0E0,4.286459E-1,0E0,2.3015845E-1,0E0,1.2835722E-2,0E0,9.7996014E-1,6.77288E-1,1.1311486E0,1.4956737E-1,8.793423E-1,0E0,3.8711488E-1,0E0,1.4325023E-1,0E0,9.910276E-3,0E0,0E0,0E0,0E0,0E0,0E0,0E0,0E0,0E0,0E0,0E0,0E0,0E0,0E0,0E0,0E0,0E0],"parents":[2147483647,0,0,1,1,2,2,3,3,4,4,5,5,7,7,8,8,9,9,10,10,11,11,13,13,14,14,15,15,17,17,19,19,21,21,23,23,24,24,25,25,26,26,27,27,29,29,31,31,33,33],"right_children":[2,4,6,8,10,12,-1,14,16,18,20,22,-1,24,26,28,-1,30,-1,32,-1,34,-1,36,38,40,42,44,-1,46,-1,48,-1,50,-1,-1,-1,-1,-1,-1,-1,-1,-1,-1,-1,-1,-1,-1,-1,-1,-1],"split_conditions":[1E0,1E0,1E0,1E0,1E0,1E0,1.8727875E-1,1E0,1E0,1E0,1E0,1E0,-9.948211E-2,1E0,1E0,1E0,2.185088E-1,1E0,1.3014863E-1,1E0,-5.172673E-2,1E0,7.596556E-2,1E0,1E0,1E0,1E0,1E0,-1.21619105E-1,1E0,8.969494E-2,1E0,3.360678E-2,1E0,-1.4619493E-2,-4.3680943E-3,9.817549E-2,-2.626189E-2,-1.9786839E-1,-4.8406597E-2,6.568653E-2,-8.099598E-2,-2.4443068E-1,6.508757E-2,-9.09916E-2,-9.227517E-3,-1.09011404E-1,2.6517504E-1,6.162589E-2,1.8020106E-2,-7.1552466E-3],"split_indices":[309,14,92,238,71,290,0,49,237,72,6,19,0,227,242,228,0,278,0,299,0,55,0,42,184,6,109,99,0,183,0,235,0,302,0,0,0,0,0,0,0,0,0,0,0,0,0,0,0,0,0],"split_type":[0,0,0,0,0,0,0,0,0,0,0,0,0,0,0,0,0,0,0,0,0,0,0,0,0,0,0,0,0,0,0,0,0,0,0,0,0,0,0,0,0,0,0,0,0,0,0,0,0,0,0],"sum_hessian":[3.9134082E2,3.799704E2,1.1370419E1,3.5063574E2,2.9334671E1,9.20059E0,2.1698291E0,3.3039264E2,2.0243109E1,2.3885473E1,5.449197E0,7.7112947E0,1.4892951E0,2.8787042E2,4.2522198E1,1.8799614E1,1.4434936E0,2.1185476E1,2.699998E0,4.1361275E0,1.3130692E0,6.4727015E0,1.2385932E0,2.7475845E2,1.3111992E1,3.853048E1,3.991717E0,1.7122156E1,1.6774578E0,1.9191622E1,1.9938537E0,2.907907E0,1.2282206E0,4.492396E0,1.9803057E0,2.6709988E2,7.6585445E0,1.1461865E1,1.6501265E0,2.8889072E1,9.641408E0,2.8735723E0,1.1181449E0,1.39009905E1,3.2211661E0,1.5594963E1,3.5966587E0,1.6810293E0,1.2268777E0,2.9946148E0,1.4977809E0],"tree_param":{"num_deleted":"0","num_feature":"362","num_nodes":"51","size_leaf_vector":"1"}},{"base_weights":[-2.6891555E-3,5.6407996E-4,-2.2714843E-1,-8.486571E-3,9.2307664E-2,-3.9372423E-1,6.1287414E-2,1.3448341E-3,-1.392495E-1,1.4155208E-1,-1.8709566E-1,-1.6630767E-1,-1.5079585E-2,1.4461265E-2,-9.522545E-2,-7.922997E-2,-1.6641422E-1,5.828999E-2,4.155795E-1,2.6046773E-2,-1.6884564E-1,-2.5780682E-2,-2.863539E-1,-2.2644702E-2,-1.6581061E-1,-2.8300213E-2,3.2638195E-1,5.5385166E-1,-4.9292043E-2,4.4551487E-3,9.535658E-2,-7.824187E-2,1.0902711E-1,2.5924308E-2,-6.724127E-2,-3.7826385E-2,-1.709769E-1,-3.868308E-2,5.1868387E-2,-1.9957406E-2,7.600606E-2,1.484817E-1,-5.2420933E-2,7.204323E-2,2.1670553E-1],"categories":[],"categories_nodes":[],"categories_segments":[],"categories_sizes":[],"default_left":[0,0,0,0,0,0,0,0,0,0,0,0,0,0,0,0,0,0,0,0,0,0,0,0,0,0,0,0,0,0,0,0,0,0,0,0,0,0,0,0,0,0,0,0,0],"id":15,"left_children":[1,3,5,7,9,11,-1,13,15,17,-1,-1,-1,19,21,23,-1,25,27,29,31,33,35,37,-1,39,41,43,-1,-1,-1,-1,-1,-1,-1,-1,-1,-1,-1,-1,-1,-1,-1,-1,-1],"loss_changes":[2.8613412E-1,3.221856E-1,4.827577E-1,4.542973E-1,1.3166623E0,2.1380776E-1,0E0,4.1876912E-1,5.722238E-1,7.381451E-1,0E0,0E0,0E0,6.2236583E-1,5.173793E-1,5.971989E-1,0E0,6.311469E-1,7.0227087E-1,8.9229566E-1,9.480167E-1,6.892025E-1,4.0250164E-1,4.665028E-1,0E0,2.4477138E-1,6.456719E-1,1.6401422E-1,0E0,0E0,0E0,0E0,0E0,0E0,0E0,0E0,0E0,0E0,0E0,0E0,0E0,0E0,0E0,0E0,0E0],"parents":[2147483647,0,0,1,1,2,2,3,3,4,4,5,5,7,7,8,8,9,9,13,13,14,14,15,15,17,17,18,18,19,19,20,20,21,21,22,22,23,23,25,25,26,26,27,27],"right_children":[2,4,6,8,10,12,-1,14,16,18,-1,-1,-1,20,22,24,-1,26,28,30,32,34,36,38,-1,40,42,44,-1,-1,-1,-1,-1,-1,-1,-1,-1,-1,-1,-1,-1,-1,-1,-1,-1],"split_conditions":[1E0,1E0,1E0,1E0,1E0,1E0,6.1287414E-2,1E0,1E0,1E0,-1.8709566E-1,-1.6630767E-1,-1.5079585E-2,1E0,1E0,1E0,-1.6641422E-1,1E0,1E0,1E0,1E0,1E0,1E0,1E0,-1.6581061E-1,1E0,1E0,1E0,-4.9292043E-2,4.4551487E-3,9.535658E-2,-7.824187E-2,1.0902711E-1,2.5924308E-2,-6.724127E-2,-3.7826385E-2,-1.709769E-1,-3.868308E-2,5.1868387E-2,-1.9957406E-2,7.600606E-2,1.484817E-1,-5.2420933E-2,7.204323E-2,2.1670553E-1],"split_indices":[45,118,185,20,240,270,0,3,48,124,0,0,0,201,183,298,0,112,49,186,311,305,89,43,0,73,2,92,0,0,0,0,0,0,0,0,0,0,0,0,0,0,0,0,0],"split_type":[0,0,0,0,0,0,0,0,0,0,0,0,0,0,0,0,0,0,0,0,0,0,0,0,0,0,0,0,0,0,0,0,0,0,0,0,0,0,0,0,0,0,0,0,0],"sum_hessian":[3.9067157E2,3.8607346E2,4.598129E0,3.5223264E2,3.3840813E1,3.3803988E0,1.2177298E0,3.285224E2,2.3710226E1,3.2413662E1,1.4271523E0,1.8848252E0,1.4955736E0,2.89986E2,3.853641E1,2.1757729E1,1.9524992E0,2.5790148E1,6.6235123E0,2.735545E2,1.6431501E1,2.909859E1,9.43782E0,2.037099E1,1.3867371E0,2.0169954E1,5.6201935E0,5.3844924E0,1.2390199E0,2.644585E2,9.096005E0,1.4445715E1,1.9857866E0,1.8946423E1,1.0152167E1,6.952879E0,2.4849415E0,1.3417537E1,6.953454E0,1.8432241E1,1.7377138E0,4.214821E0,1.4053727E0,2.7289734E0,2.6555192E0],"tree_param":{"num_deleted":"0","num_feature":"362","num_nodes":"45","size_leaf_vector":"1"}},{"base_weights":[-2.8554637E-3,5.5193533E-3,-9.576323E-2,1.1790482E-2,-1.4975406E-1,-5.874969E-2,-1.6490465E-1,2.4658623E-3,1.1999219E-1,-2.624216E-1,7.084083E-2,1.4638933E-2,-2.5801674E-1,2.1945763E-2,-5.1415045E-2,1.7365423E-1,-1.0303237E-1,-3.5309663E-1,9.231677E-3,-4.641035E-2,7.45979E-2,8.651098E-2,-2.1731752E-1,-3.55636E-1,3.5469864E-2,1.4268659E-2,3.6753416E-1,-2.8367473E-2,-4.7308925E-1,2.545789E-1,-1.9402608E-1,-4.4203183E-1,-8.763473E-4,1.4339627E-1,-1.6348211E-1,1.65362E-2,-4.295533E-1,-5.2817523E-1,1.4525264E-2,1.3950122E-2,-2.1386217E-2,2.587075E-3,1.8607135E-1,-2.9436431E-3,-1.5067093E-1,-1.7617755E-1,-3.0159425E-2,5.016112E-2,1.5812789E-1,2.9667206E-2,-1.6965424E-1,-1.6681604E-1,-3.1788602E-2,6.350168E-2,-4.419271E-2,-1.02404185E-1,2.3404878E-2,-1.5715228E-1,-4.3269295E-2,-2.2708763E-1,-3.2567643E-2],"categories":[],"categories_nodes":[],"categories_segments":[],"categories_sizes":[],"default_left":[0,0,0,0,0,0,0,0,0,0,0,0,0,0,0,0,0,0,0,0,0,0,0,0,0,0,0,0,0,0,0,0,0,0,0,0,0,0,0,0,0,0,0,0,0,0,0,0,0,0,0,0,0,0,0,0,0,0,0,0,0],"id":16,"left_children":[1,3,5,7,9,11,-1,13,15,17,19,21,23,25,27,29,-1,31,-1,-1,-1,33,35,37,-1,39,41,43,45,47,49,51,-1,53,55,-1,57,59,-1,-1,-1,-1,-1,-1,-1,-1,-1,-1,-1,-1,-1,-1,-1,-1,-1,-1,-1,-1,-1,-1,-1],"loss_changes":[3.0495766E-1,3.521636E-1,5.1217055E-1,3.4960997E-1,3.6759347E-1,4.5832965E-1,0E0,3.3732477E-1,7.4340224E-1,2.6362497E-1,2.604423E-1,4.1328686E-1,3.513078E-1,6.207794E-1,8.160886E-1,8.023503E-1,0E0,2.2735476E-1,0E0,0E0,0E0,2.9051897E-1,3.6379713E-1,5.0904346E-1,0E0,6.427251E-1,4.5606863E-1,7.1602327E-1,1.2639636E-1,4.160236E-1,6.1440957E-1,1.651783E-1,0E0,3.4541634E-1,1.9623807E-1,0E0,1.645714E-2,3.9242804E-1,0E0,0E0,0E0,0E0,0E0,0E0,0E0,0E0,0E0,0E0,0E0,0E0,0E0,0E0,0E0,0E0,0E0,0E0,0E0,0E0,0E0,0E0,0E0],"parents":[2147483647,0,0,1,1,2,2,3,3,4,4,5,5,7,7,8,8,9,9,10,10,11,11,12,12,13,13,14,14,15,15,17,17,21,21,22,22,23,23,25,25,26,26,27,27,28,28,29,29,30,30,31,31,33,33,34,34,36,36,37,37],"right_children":[2,4,6,8,10,12,-1,14,16,18,20,22,24,26,28,30,-1,32,-1,-1,-1,34,36,38,-1,40,42,44,46,48,50,52,-1,54,56,-1,58,60,-1,-1,-1,-1,-1,-1,-1,-1,-1,-1,-1,-1,-1,-1,-1,-1,-1,-1,-1,-1,-1,-1,-1],"split_conditions":[1E0,1E0,1E0,1E0,1E0,1E0,-1.6490465E-1,1E0,1E0,1E0,1E0,1E0,1E0,1E0,1E0,1E0,-1.0303237E-1,1E0,9.231677E-3,-4.641035E-2,7.45979E-2,1E0,1E0,1E0,3.5469864E-2,1E0,1E0,1E0,1E0,1E0,1E0,1E0,-8.763473E-4,1E0,1E0,1.65362E-2,1E0,1E0,1.4525264E-2,1.3950122E-2,-2.1386217E-2,2.587075E-3,1.8607135E-1,-2.9436431E-3,-1.5067093E-1,-1.7617755E-1,-3.0159425E-2,5.016112E-2,1.5812789E-1,2.9667206E-2,-1.6965424E-1,-1.6681604E-1,-3.1788602E-2,6.350168E-2,-4.419271E-2,-1.02404185E-1,2.3404878E-2,-1.5715228E-1,-4.3269295E-2,-2.2708763E-1,-3.2567643E-2],"split_indices":[25,76,85,55,127,224,0,293,323,56,273,261,276,128,48,2,0,2,0,0,0,71,56,200,0,112,92,130,121,305,305,89,0,231,56,0,273,19,0,0,0,0,0,0,0,0,0,0,0,0,0,0,0,0,0,0,0,0,0,0,0],"split_type":[0,0,0,0,0,0,0,0,0,0,0,0,0,0,0,0,0,0,0,0,0,0,0,0,0,0,0,0,0,0,0,0,0,0,0,0,0,0,0,0,0,0,0,0,0,0,0,0,0,0,0,0,0,0,0,0,0,0,0,0,0],"sum_hessian":[3.9025406E2,3.588477E2,3.1406368E1,3.4580548E2,1.3042206E1,3.0082779E1,1.3235877E0,3.193107E2,2.6494804E1,8.507462E0,4.534744E0,2.2662777E1,7.420002E0,2.3495767E2,8.435302E1,2.4305681E1,2.1891239E0,6.3418336E0,2.1656277E0,2.0564232E0,2.4783206E0,1.7780502E1,4.882276E0,5.934947E0,1.4850551E0,2.3087027E2,4.087401E0,8.0993416E1,3.3596072E0,2.0173254E1,4.1324277E0,4.8482046E0,1.4936292E0,1.4831932E1,2.9485698E0,2.4620857E0,2.4201906E0,3.9437096E0,1.9912372E0,1.6802592E2,6.284434E1,2.1160865E0,1.9713144E0,7.89237E1,2.069716E0,2.1304495E0,1.2291577E0,1.6497335E1,3.675918E0,2.7208483E0,1.4115791E0,3.1312556E0,1.7169487E0,1.2231152E1,2.6007805E0,1.459893E0,1.4886768E0,1.1907377E0,1.2294527E0,2.0319297E0,1.9117799E0],"tree_param":{"num_deleted":"0","num_feature":"362","num_nodes":"61","size_leaf_vector":"1"}},{"base_weights":[-4.669231E-3,-6.728122E-4,-1.8982534E-1,7.6491395E-3,-8.53895E-2,-3.0733117E-1,1.7505134E-2,2.4094261E-2,-6.4780556E-2,1.3039523E-2,-3.9307573E-1,-4.002859E-1,1.2205926E-2,4.03986E-2,-1.00244224E-1,-9.4821006E-2,3.6388513E-1,-4.913793E-2,1.3803726E-1,-6.6085523E-1,6.747733E-2,-1.3872808E-1,-4.3558225E-2,2.9522076E-2,2.3925686E-1,-1.695169E-1,2.0649374E-1,-4.055066E-2,-2.9649776E-1,1.443448E-1,2.3465648E-2,-1.0926378E-2,-1.3178085E-1,-2.544169E-1,-2.9625619E-2,7.422067E-2,-5.4382842E-2,1.4400352E-2,-2.5119051E-2,2.7625741E-2,2.1029866E-1,-2.4321895E-2,-1.17282115E-1,8.184903E-2,-1.69978E-2,3.6087518E-3,-1.1448206E-1,-1.3051394E-1,7.536675E-2,1.6094023E-2,-8.396315E-2],"categories":[],"categories_nodes":[],"categories_segments":[],"categories_sizes":[],"default_left":[0,0,0,0,0,0,0,0,0,0,0,0,0,0,0,0,0,0,0,0,0,0,0,0,0,0,0,0,0,0,0,0,0,0,0,0,0,0,0,0,0,0,0,0,0,0,0,0,0,0,0],"id":17,"left_children":[1,3,5,7,9,11,-1,13,15,17,19,21,-1,23,25,27,29,31,-1,33,35,-1,-1,37,39,41,43,45,47,-1,-1,49,-1,-1,-1,-1,-1,-1,-1,-1,-1,-1,-1,-1,-1,-1,-1,-1,-1,-1,-1],"loss_changes":[2.888368E-1,2.708587E-1,2.5843892E-1,4.1833436E-1,1.0458444E0,2.0251375E-1,0E0,5.8361423E-1,8.7173367E-1,7.732575E-1,1.0757009E0,6.3381195E-3,0E0,5.41135E-1,7.4532723E-1,6.616601E-1,1.1192119E-1,3.6207044E-1,0E0,4.823177E-1,2.2303845E-1,0E0,0E0,5.0933313E-1,8.190698E-1,5.131144E-1,1.3083819E-1,8.9510137E-1,1.0876707E0,0E0,0E0,4.2209396E-1,0E0,0E0,0E0,0E0,0E0,0E0,0E0,0E0,0E0,0E0,0E0,0E0,0E0,0E0,0E0,0E0,0E0,0E0,0E0],"parents":[2147483647,0,0,1,1,2,2,3,3,4,4,5,5,7,7,8,8,9,9,10,10,11,11,13,13,14,14,15,15,16,16,17,17,19,19,20,20,23,23,24,24,25,25,26,26,27,27,28,28,31,31],"right_children":[2,4,6,8,10,12,-1,14,16,18,20,22,-1,24,26,28,30,32,-1,34,36,-1,-1,38,40,42,44,46,48,-1,-1,50,-1,-1,-1,-1,-1,-1,-1,-1,-1,-1,-1,-1,-1,-1,-1,-1,-1,-1,-1],"split_conditions":[1E0,1E0,1E0,1E0,1E0,1E0,1.7505134E-2,1E0,1E0,1E0,1E0,1E0,1.2205926E-2,1E0,1E0,1E0,1E0,1E0,1.3803726E-1,1E0,1E0,-1.3872808E-1,-4.3558225E-2,1E0,1E0,1E0,1E0,1E0,1E0,1.443448E-1,2.3465648E-2,1E0,-1.3178085E-1,-2.544169E-1,-2.9625619E-2,7.422067E-2,-5.4382842E-2,1.4400352E-2,-2.5119051E-2,2.7625741E-2,2.1029866E-1,-2.4321895E-2,-1.17282115E-1,8.184903E-2,-1.69978E-2,3.6087518E-3,-1.1448206E-1,-1.3051394E-1,7.536675E-2,1.6094023E-2,-8.396315E-2],"split_indices":[263,303,50,231,273,318,0,66,24,137,92,89,0,86,253,2,15,24,0,330,293,0,0,49,2,270,243,99,149,0,0,32,0,0,0,0,0,0,0,0,0,0,0,0,0,0,0,0,0,0,0],"split_type":[0,0,0,0,0,0,0,0,0,0,0,0,0,0,0,0,0,0,0,0,0,0,0,0,0,0,0,0,0,0,0,0,0,0,0,0,0,0,0,0,0,0,0,0,0,0,0,0,0,0,0],"sum_hessian":[3.8951303E2,3.822658E2,7.2472105E0,3.4890195E2,3.336388E1,4.75667E0,2.4905405E0,2.8488608E2,6.401588E1,2.6003094E1,7.360786E0,3.6354585E0,1.1212116E0,2.5245683E2,3.2429234E1,6.0551304E1,3.4645734E0,2.360971E1,2.3933833E0,4.379497E0,2.981289E0,2.269754E0,1.3657044E0,2.404537E2,1.2003123E1,2.6819715E1,5.6095185E0,4.865856E1,1.1892742E1,1.9711312E0,1.4934423E0,2.243984E1,1.1698701E0,2.903728E0,1.475769E0,1.7331344E0,1.2481546E0,2.0721852E2,3.3235184E1,1.0011551E1,1.9915724E0,2.014091E1,6.678807E0,4.4507804E0,1.1587383E0,4.2994873E1,5.663689E0,9.655937E0,2.2368047E0,1.8740835E1,3.6990047E0],"tree_param":{"num_deleted":"0","num_feature":"362","num_nodes":"51","size_leaf_vector":"1"}},{"base_weights":[-4.2349813E-3,-5.0647825E-4,-2.2503123E-1,-3.6108557E-3,2.5172272E-1,-3.4744158E-1,3.9269973E-2,-1.1272582E-2,9.7686864E-2,1.19745724E-1,-1.1171824E-2,-1.6028795E-1,-1.0672682E-2,-1.6992057E-2,2.716743E-1,2.7176583E-2,2.0600833E-1,-9.308833E-3,-1.6856751E-1,3.7489283E-1,-1.2120162E-2,1.272901E-1,-3.4905022E-1,8.0197817E-4,-3.3161905E-2,-8.062442E-5,-2.0262836E-1,1.5937606E-1,2.1071952E-2,5.5736043E-2,-9.124515E-2,-1.3929132E-1,-6.967885E-3],"categories":[],"categories_nodes":[],"categories_segments":[],"categories_sizes":[],"default_left":[0,0,0,0,0,0,0,0,0,0,0,0,0,0,0,0,0,0,0,0,0,0,0,0,0,0,0,0,0,0,0,0,0],"id":18,"left_children":[1,3,5,7,9,11,-1,13,15,-1,-1,-1,-1,17,19,21,-1,23,25,27,-1,29,31,-1,-1,-1,-1,-1,-1,-1,-1,-1,-1],"loss_changes":[3.2078895E-1,3.018482E-1,3.2741612E-1,2.965274E-1,2.1453461E-1,2.7752012E-1,0E0,5.787558E-1,1.097258E0,0E0,0E0,0E0,0E0,4.0451044E-1,2.4347132E-1,9.8749846E-1,0E0,4.0412036E-1,1.4298213E0,2.2105068E-1,0E0,5.740982E-1,1.9686389E-1,0E0,0E0,0E0,0E0,0E0,0E0,0E0,0E0,0E0,0E0],"parents":[2147483647,0,0,1,1,2,2,3,3,4,4,5,5,7,7,8,8,13,13,14,14,15,15,17,17,18,18,19,19,21,21,22,22],"right_children":[2,4,6,8,10,12,-1,14,16,-1,-1,-1,-1,18,20,22,-1,24,26,28,-1,30,32,-1,-1,-1,-1,-1,-1,-1,-1,-1,-1],"split_conditions":[1E0,1E0,1E0,1E0,1E0,1E0,3.9269973E-2,1E0,1E0,1.19745724E-1,-1.1171824E-2,-1.6028795E-1,-1.0672682E-2,1E0,1E0,1E0,2.0600833E-1,1E0,1E0,1E0,-1.2120162E-2,1E0,1E0,8.0197817E-4,-3.3161905E-2,-8.062442E-5,-2.0262836E-1,1.5937606E-1,2.1071952E-2,5.5736043E-2,-9.124515E-2,-1.3929132E-1,-6.967885E-3],"split_indices":[199,7,50,57,109,208,0,16,19,0,0,0,0,142,92,312,0,242,312,200,0,267,109,0,0,0,0,0,0,0,0,0,0],"split_type":[0,0,0,0,0,0,0,0,0,0,0,0,0,0,0,0,0,0,0,0,0,0,0,0,0,0,0,0,0,0,0,0,0],"sum_hessian":[3.8880505E2,3.8333414E2,5.4709253E0,3.7964722E2,3.686924E0,4.0886316E0,1.3822937E0,3.537777E2,2.5869514E1,2.1888385E0,1.4980854E0,2.1107702E0,1.9778616E0,3.4768945E2,6.088232E0,2.4038052E1,1.8314635E0,3.3192584E2,1.5763613E1,4.423779E0,1.6644529E0,1.9508522E1,4.5295286E0,2.9766644E2,3.425941E1,1.25852995E1,3.1783135E0,2.4318516E0,1.9919273E0,1.7680676E1,1.8278474E0,3.0319993E0,1.4975291E0],"tree_param":{"num_deleted":"0","num_feature":"362","num_nodes":"33","size_leaf_vector":"1"}},{"base_weights":[-3.1526957E-3,-1.23157315E-2,7.775874E-2,-1.7593408E-2,1.6339992E-1,1.230447E-1,-1.7358287E-1,-2.5793595E-2,9.788324E-2,3.2036304E-1,-2.3113585E-1,1.7943785E-1,-1.5674295E-1,-2.1255203E-2,-2.9482102E-1,2.1852653E-2,1.7931108E-1,5.273216E-1,4.5950085E-2,-1.0139118E-1,-1.5610154E-2,1.1819826E-1,4.4446737E-1,1.3633438E-4,-1.20157786E-1,-1.3252744E-2,-1.7685106E-1,-1.5376604E-1,3.1190703E-3,-1.03461854E-1,2.902076E-1,2.255869E-1,1.6743936E-2,4.2617016E-2,-3.3855915E-2,7.376042E-2,3.6925456E-1,1.7059058E-1,2.919947E-2,-2.7581213E-2,2.9797088E-2,-6.9285855E-3,4.297823E-2,-8.0361634E-2,5.2947853E-2,-5.9206463E-2,1.1937128E-1,1.352807E-1,1.2756871E-3,3.272468E-2,-6.652468E-2,1.3973798E-1,2.5116365E-2],"categories":[],"categories_nodes":[],"categories_segments":[],"categories_sizes":[],"default_left":[0,0,0,0,0,0,0,0,0,0,0,0,0,0,0,0,0,0,0,0,0,0,0,0,0,0,0,0,0,0,0,0,0,0,0,0,0,0,0,0,0,0,0,0,0,0,0,0,0,0,0,0,0],"id":19,"left_children":[1,3,5,7,9,11,-1,13,15,17,19,21,23,25,27,29,-1,31,33,-1,-1,35,37,39,-1,41,43,-1,-1,45,47,-1,-1,-1,-1,49,51,-1,-1,-1,-1,-1,-1,-1,-1,-1,-1,-1,-1,-1,-1,-1,-1],"loss_changes":[2.8960153E-1,3.2799596E-1,1.2524904E0,3.2567778E-1,7.1314365E-1,6.277161E-1,0E0,3.8374025E-1,8.5472435E-1,4.18859E-1,4.973066E-2,4.683447E-1,2.6426136E-1,3.9013585E-1,3.5233104E-1,7.314686E-1,0E0,4.189998E-1,8.394439E-2,0E0,0E0,2.7880138E-1,1.886816E-1,5.6648634E-2,0E0,4.6679503E-1,5.405555E-1,0E0,0E0,7.825726E-1,3.1533116E-1,0E0,0E0,0E0,0E0,2.805017E-1,6.7836285E-2,0E0,0E0,0E0,0E0,0E0,0E0,0E0,0E0,0E0,0E0,0E0,0E0,0E0,0E0,0E0,0E0],"parents":[2147483647,0,0,1,1,2,2,3,3,4,4,5,5,7,7,8,8,9,9,10,10,11,11,12,12,13,13,14,14,15,15,17,17,18,18,21,21,22,22,23,23,25,25,26,26,29,29,30,30,35,35,36,36],"right_children":[2,4,6,8,10,12,-1,14,16,18,20,22,24,26,28,30,-1,32,34,-1,-1,36,38,40,-1,42,44,-1,-1,46,48,-1,-1,-1,-1,50,52,-1,-1,-1,-1,-1,-1,-1,-1,-1,-1,-1,-1,-1,-1,-1,-1],"split_conditions":[1E0,1E0,1E0,1E0,1E0,1E0,-1.7358287E-1,1E0,1E0,1E0,1E0,1E0,1E0,1E0,1E0,1E0,1.7931108E-1,1E0,1E0,-1.0139118E-1,-1.5610154E-2,1E0,1E0,1E0,-1.20157786E-1,1E0,1E0,-1.5376604E-1,3.1190703E-3,1E0,1E0,2.255869E-1,1.6743936E-2,4.2617016E-2,-3.3855915E-2,1E0,1E0,1.7059058E-1,2.919947E-2,-2.7581213E-2,2.9797088E-2,-6.9285855E-3,4.297823E-2,-8.0361634E-2,5.2947853E-2,-5.9206463E-2,1.1937128E-1,1.352807E-1,1.2756871E-3,3.272468E-2,-6.652468E-2,1.3973798E-1,2.5116365E-2],"split_indices":[300,136,136,205,121,50,0,281,54,56,112,72,278,317,121,183,0,29,109,0,0,9,270,231,0,86,253,0,0,318,80,0,0,0,0,242,116,0,0,0,0,0,0,0,0,0,0,0,0,0,0,0,0],"split_type":[0,0,0,0,0,0,0,0,0,0,0,0,0,0,0,0,0,0,0,0,0,0,0,0,0,0,0,0,0,0,0,0,0,0,0,0,0,0,0,0,0,0,0,0,0,0,0,0,0,0,0,0,0],"sum_hessian":[3.883257E2,3.4958392E2,3.8741795E1,3.4026385E2,9.320062E0,3.7001427E1,1.7403668E0,3.1842838E2,2.1835487E1,6.8019547E0,2.5181067E0,3.1093067E1,5.90836E0,3.1420682E2,4.221544E0,1.9858429E1,1.9770602E0,3.3521633E0,3.4497912E0,1.0216575E0,1.4964492E0,2.6431581E1,4.6614857E0,4.203052E0,1.7053081E0,2.9986942E2,1.4337425E1,2.0674148E0,2.154129E0,1.3955872E1,5.9025564E0,1.867612E0,1.4845513E0,2.214839E0,1.2349523E0,2.3555904E1,2.8756773E0,2.9634163E0,1.6980691E0,2.2175941E0,1.9854579E0,2.8292947E2,1.693992E1,1.159298E1,2.744445E0,1.2265267E1,1.6906041E0,3.4093208E0,2.4932356E0,2.1604424E1,1.9514809E0,1.6772804E0,1.198397E0],"tree_param":{"num_deleted":"0","num_feature":"362","num_nodes":"53","size_leaf_vector":"1"}},{"base_weights":[-1.1895845E-3,2.7992178E-3,-1.5681359E-1,-2.0559402E-3,1.5506603E-1,-2.0723666E-1,3.1896755E-2,6.8939263E-3,-9.940641E-2,1.67943E-2,1.6829312E-1,-2.7772427E-1,2.2385068E-2,-3.864715E-3,1.6911113E-1,-3.5881277E-2,-4.0867636E-1,9.3819305E-2,-5.8236998E-2,-3.64959E-1,8.385384E-3,-1.5112484E-2,1.12165555E-1,2.6141575E-1,-3.8814035E-1,-1.0655017E-1,8.579736E-2,-1.7216016E-1,9.292649E-3,1.5004796E-1,-3.707643E-2,-1.4729357E-1,-4.618942E-3,-2.800739E-3,-8.541909E-2,7.1689696E-3,1.2122643E-1,1.2582657E-1,-3.1540222E-2,-1.6955328E-1,-8.153653E-3,-1.7272007E-2,-1.379419E-1,5.9160262E-2,-2.485508E-3],"categories":[],"categories_nodes":[],"categories_segments":[],"categories_sizes":[],"default_left":[0,0,0,0,0,0,0,0,0,0,0,0,0,0,0,0,0,0,0,0,0,0,0,0,0,0,0,0,0,0,0,0,0,0,0,0,0,0,0,0,0,0,0,0,0],"id":20,"left_children":[1,3,5,7,9,11,-1,13,15,17,-1,19,-1,21,23,25,27,29,-1,31,-1,33,35,37,39,41,-1,-1,-1,43,-1,-1,-1,-1,-1,-1,-1,-1,-1,-1,-1,-1,-1,-1,-1],"loss_changes":[2.417573E-1,2.812584E-1,1.5116741E-1,3.2241377E-1,6.5038836E-1,1.8972516E-1,0E0,5.924767E-1,5.9741175E-1,1.7741722E-1,0E0,1.9730216E-1,0E0,4.1800797E-1,1.1875017E0,6.4330554E-1,3.9634585E-1,1.1453621E-1,0E0,2.3604172E-1,0E0,4.5164064E-1,7.1979487E-1,1.127789E0,2.0209241E-1,3.6834845E-1,0E0,0E0,0E0,5.1584154E-2,0E0,0E0,0E0,0E0,0E0,0E0,0E0,0E0,0E0,0E0,0E0,0E0,0E0,0E0,0E0],"parents":[2147483647,0,0,1,1,2,2,3,3,4,4,5,5,7,7,8,8,9,9,11,11,13,13,14,14,15,15,16,16,17,17,19,19,21,21,22,22,23,23,24,24,25,25,29,29],"right_children":[2,4,6,8,10,12,-1,14,16,18,-1,20,-1,22,24,26,28,30,-1,32,-1,34,36,38,40,42,-1,-1,-1,44,-1,-1,-1,-1,-1,-1,-1,-1,-1,-1,-1,-1,-1,-1,-1],"split_conditions":[1E0,1E0,1E0,1E0,1E0,1E0,3.1896755E-2,1E0,1E0,1E0,1.6829312E-1,1E0,2.2385068E-2,1E0,1E0,1E0,1E0,1E0,-5.8236998E-2,1E0,8.385384E-3,1E0,1E0,1E0,1E0,1E0,8.579736E-2,-1.7216016E-1,9.292649E-3,1E0,-3.707643E-2,-1.4729357E-1,-4.618942E-3,-2.800739E-3,-8.541909E-2,7.1689696E-3,1.2122643E-1,1.2582657E-1,-3.1540222E-2,-1.6955328E-1,-8.153653E-3,-1.7272007E-2,-1.379419E-1,5.9160262E-2,-2.485508E-3],"split_indices":[191,319,59,303,229,50,0,24,224,112,0,302,0,118,54,270,205,9,0,230,0,263,112,293,19,116,0,0,0,6,0,0,0,0,0,0,0,0,0,0,0,0,0,0,0],"split_type":[0,0,0,0,0,0,0,0,0,0,0,0,0,0,0,0,0,0,0,0,0,0,0,0,0,0,0,0,0,0,0,0,0,0,0,0,0,0,0,0,0,0,0,0,0],"sum_hessian":[3.8775073E2,3.790181E2,8.732608E0,3.6826224E2,1.0755859E1,7.5066023E0,1.226006E0,3.3810767E2,3.0154575E1,8.799667E0,1.9561921E0,6.0165887E0,1.4900135E0,3.1799374E2,2.0113945E1,2.5942015E1,4.212561E0,6.852418E0,1.9472495E0,4.52989E0,1.4866984E0,2.90685E2,2.7308735E1,1.7711113E1,2.4028323E0,2.182023E1,4.121785E0,2.8401513E0,1.3724097E0,5.6904993E0,1.1619185E0,3.0322084E0,1.4976817E0,2.856005E2,5.0844984E0,2.1799156E1,5.5095797E0,1.2275398E1,5.4357133E0,1.2325567E0,1.1702756E0,2.0184721E1,1.6355095E0,4.1955476E0,1.4949517E0],"tree_param":{"num_deleted":"0","num_feature":"362","num_nodes":"45","size_leaf_vector":"1"}},{"base_weights":[-1.4806475E-3,1.4813357E-3,-2.0804995E-1,5.4296134E-3,-1.8382372E-1,-3.3558363E-1,4.1462913E-2,1.3663323E-2,-8.352358E-2,-3.3661295E-2,-1.6184463E-1,-1.3414714E-1,-2.2380557E-2,2.3568334E-2,-9.897026E-2,-1.2523235E-1,2.1146962E-1,4.9189106E-2,-6.674825E-2,4.162283E-2,-4.5225207E-2,-1.8057345E-1,2.9536462E-1,-7.813195E-2,-3.726348E-1,9.699107E-2,-1.4259509E-2,2.5047274E-2,-2.1540364E-3,1.3578867E-2,-1.2088601E-1,-1.9905565E-2,1.446687E-1,-6.730503E-2,1.05699204E-1,1.2910008E-1,-6.9473023E-3,-4.794931E-2,3.5986792E-2,-1.5849897E-1,-3.297067E-2],"categories":[],"categories_nodes":[],"categories_segments":[],"categories_sizes":[],"default_left":[0,0,0,0,0,0,0,0,0,0,0,0,0,0,0,0,0,0,0,0,0,0,0,0,0,0,0,0,0,0,0,0,0,0,0,0,0,0,0,0,0],"id":21,"left_children":[1,3,5,7,9,11,-1,13,15,17,-1,-1,-1,19,21,23,25,27,-1,29,31,33,35,37,39,-1,-1,-1,-1,-1,-1,-1,-1,-1,-1,-1,-1,-1,-1,-1,-1],"loss_changes":[2.3783576E-1,2.8173712E-1,2.890337E-1,2.7702743E-1,4.1090217E-1,9.2069894E-2,0E0,3.87927E-1,4.2085773E-1,1.1600628E-1,0E0,0E0,0E0,3.9746633E-1,9.585296E-1,3.054427E-1,1.4114816E-1,1.120796E-2,0E0,4.2735207E-1,7.7515143E-1,6.372438E-1,2.3362446E-1,4.2997956E-1,1.1891335E-1,0E0,0E0,0E0,0E0,0E0,0E0,0E0,0E0,0E0,0E0,0E0,0E0,0E0,0E0,0E0,0E0],"parents":[2147483647,0,0,1,1,2,2,3,3,4,4,5,5,7,7,8,8,9,9,13,13,14,14,15,15,16,16,17,17,19,19,20,20,21,21,22,22,23,23,24,24],"right_children":[2,4,6,8,10,12,-1,14,16,18,-1,-1,-1,20,22,24,26,28,-1,30,32,34,36,38,40,-1,-1,-1,-1,-1,-1,-1,-1,-1,-1,-1,-1,-1,-1,-1,-1],"split_conditions":[1E0,1E0,1E0,1E0,1E0,1E0,4.1462913E-2,1E0,1E0,1E0,-1.6184463E-1,-1.3414714E-1,-2.2380557E-2,1E0,1E0,1E0,1E0,1E0,-6.674825E-2,1E0,1E0,1E0,1E0,1E0,1E0,9.699107E-2,-1.4259509E-2,2.5047274E-2,-2.1540364E-3,1.3578867E-2,-1.2088601E-1,-1.9905565E-2,1.446687E-1,-6.730503E-2,1.05699204E-1,1.2910008E-1,-6.9473023E-3,-4.794931E-2,3.5986792E-2,-1.5849897E-1,-3.297067E-2],"split_indices":[45,27,185,25,240,270,0,258,9,237,0,0,0,200,97,231,71,305,0,269,28,230,225,293,305,0,0,0,0,0,0,0,0,0,0,0,0,0,0,0,0],"split_type":[0,0,0,0,0,0,0,0,0,0,0,0,0,0,0,0,0,0,0,0,0,0,0,0,0,0,0,0,0,0,0,0,0,0,0,0,0,0,0,0,0],"sum_hessian":[3.8720905E2,3.8271417E2,4.4948835E0,3.756803E2,7.033886E0,3.307503E0,1.1873806E0,3.4462723E2,3.1053078E1,5.715423E0,1.3184625E0,1.8172412E0,1.4902619E0,3.1749722E2,2.7129993E1,2.771058E1,3.3424962E0,4.4864874E0,1.228936E0,2.5180682E2,6.569039E1,2.2927486E1,4.202506E0,2.4384144E1,3.3264372E0,2.1610909E0,1.1814053E0,2.4900804E0,1.996407E0,2.5065274E2,1.1540828E0,6.400109E1,1.6892992E0,2.172208E1,1.2054056E0,2.7051914E0,1.4973148E0,1.7400599E1,6.983546E0,1.453934E0,1.8725034E0],"tree_param":{"num_deleted":"0","num_feature":"362","num_nodes":"41","size_leaf_vector":"1"}},{"base_weights":[-1.7679444E-3,1.813889E-3,-1.5856615E-1,4.9035978E-3,-2.1859828E-1,-5.6254942E-2,-1.3339941E-1,9.644752E-3,-1.1689534E-1,-1.4450178E-1,-4.4059227E-3,-1.6268988E-1,2.3837535E-2,2.5705276E-3,1.0555107E-1,-4.67558E-2,-1.4567716E-1,2.225435E-2,-2.9815456E-2,-8.599083E-2,1.64497E-2,-9.11623E-3,1.10323206E-1,4.5568224E-2,1.7350587E-1,-1.8124813E-1,1.7762615E-1,1.3072077E-3,-3.4787167E-2,4.484948E-2,-6.188915E-2,2.915809E-2,-1.1110165E-1,-8.683592E-2,3.6202542E-2,6.9605924E-2,6.504212E-3],"categories":[],"categories_nodes":[],"categories_segments":[],"categories_sizes":[],"default_left":[0,0,0,0,0,0,0,0,0,0,0,0,0,0,0,0,0,0,0,0,0,0,0,0,0,0,0,0,0,0,0,0,0,0,0,0,0],"id":22,"left_children":[1,3,5,7,9,11,-1,13,15,-1,17,19,-1,21,23,25,-1,-1,-1,-1,-1,27,29,31,-1,33,35,-1,-1,-1,-1,-1,-1,-1,-1,-1,-1],"loss_changes":[2.1811898E-1,2.599818E-1,2.2886893E-1,2.1820202E-1,2.9526582E-1,1.2174816E-1,0E0,2.4583921E-1,3.4349015E-1,0E0,3.6619358E-2,1.3840109E-1,0E0,4.277168E-1,6.796359E-1,4.2461932E-1,0E0,0E0,0E0,0E0,0E0,4.4189638E-1,4.4303852E-1,5.336314E-1,0E0,3.167194E-1,4.0591404E-2,0E0,0E0,0E0,0E0,0E0,0E0,0E0,0E0,0E0,0E0],"parents":[2147483647,0,0,1,1,2,2,3,3,4,4,5,5,7,7,8,8,10,10,11,11,13,13,14,14,15,15,21,21,22,22,23,23,25,25,26,26],"right_children":[2,4,6,8,10,12,-1,14,16,-1,18,20,-1,22,24,26,-1,-1,-1,-1,-1,28,30,32,-1,34,36,-1,-1,-1,-1,-1,-1,-1,-1,-1,-1],"split_conditions":[1E0,1E0,1E0,1E0,1E0,1E0,-1.3339941E-1,1E0,1E0,-1.4450178E-1,1E0,1E0,2.3837535E-2,1E0,1E0,1E0,-1.4567716E-1,2.225435E-2,-2.9815456E-2,-8.599083E-2,1.64497E-2,1E0,1E0,1E0,1.7350587E-1,1E0,1E0,1.3072077E-3,-3.4787167E-2,4.484948E-2,-6.188915E-2,2.915809E-2,-1.1110165E-1,-8.683592E-2,3.6202542E-2,6.9605924E-2,6.504212E-3],"split_indices":[198,199,312,76,306,92,0,57,235,0,112,99,0,236,19,273,0,0,0,0,0,230,224,66,0,200,293,0,0,0,0,0,0,0,0,0,0],"split_type":[0,0,0,0,0,0,0,0,0,0,0,0,0,0,0,0,0,0,0,0,0,0,0,0,0,0,0,0,0,0,0,0,0,0,0,0,0],"sum_hessian":[3.8685904E2,3.7918552E2,7.673525E0,3.7490784E2,4.277656E0,6.5336614E0,1.1398636E0,3.6174725E2,1.3160585E1,1.3593262E0,2.91833E0,3.5504222E0,2.9832392E0,3.378534E2,2.3893877E1,1.2003825E1,1.15676E0,1.716797E0,1.2015331E0,2.059288E0,1.4911342E0,3.0562137E2,3.2232018E1,2.2176762E1,1.7171155E0,7.6254435E0,4.3783817E0,2.7224774E2,3.337362E1,2.9152805E1,3.0792112E0,2.0409674E1,1.7670877E0,5.6440134E0,1.98143E0,2.8844595E0,1.4939225E0],"tree_param":{"num_deleted":"0","num_feature":"362","num_nodes":"37","size_leaf_vector":"1"}},{"base_weights":[-2.3179888E-3,-4.846688E-3,2.065986E-1,-7.8044347E-3,1.6068581E-1,9.2308804E-2,-1.1512956E-3,-1.3995449E-3,-8.3702326E-2,-3.3258017E-2,1.3984026E-1,-1.1109025E-2,1.1592872E-1,-8.151453E-3,-4.203773E-1,1.5373254E-1,-9.227671E-2,-5.6456993E-3,-2.1640393E-1,1.7115574E-1,-2.4672143E-1,-5.3990256E-2,1.2807597E-1,-1.9478412E-1,-6.6116066E-3,7.6470576E-2,1.0198687E-3,4.8535978E-4,-4.2171877E-2,5.9467023E-3,-1.6563845E-1,7.850542E-2,-2.5293034E-2,-1.06623314E-1,-1.2222796E-2,-2.7177336E-2,6.915362E-2],"categories":[],"categories_nodes":[],"categories_segments":[],"categories_sizes":[],"default_left":[0,0,0,0,0,0,0,0,0,0,0,0,0,0,0,0,0,0,0,0,0,0,0,0,0,0,0,0,0,0,0,0,0,0,0,0,0],"id":23,"left_children":[1,3,5,7,9,-1,-1,11,13,15,-1,17,19,21,23,25,-1,27,29,31,33,35,-1,-1,-1,-1,-1,-1,-1,-1,-1,-1,-1,-1,-1,-1,-1],"loss_changes":[2.0564751E-1,1.8912521E-1,1.00226805E-1,1.8360563E-1,4.172862E-1,0E0,0E0,3.9948747E-1,7.4425703E-1,3.079661E-1,0E0,3.6188418E-1,5.7904214E-1,5.2216804E-1,4.751073E-1,5.5234954E-2,0E0,3.1029242E-1,6.7437124E-1,5.736702E-1,7.399382E-2,2.6589367E-1,0E0,0E0,0E0,0E0,0E0,0E0,0E0,0E0,0E0,0E0,0E0,0E0,0E0,0E0,0E0],"parents":[2147483647,0,0,1,1,2,2,3,3,4,4,7,7,8,8,9,9,11,11,12,12,13,13,14,14,15,15,17,17,18,18,19,19,20,20,21,21],"right_children":[2,4,6,8,10,-1,-1,12,14,16,-1,18,20,22,24,26,-1,28,30,32,34,36,-1,-1,-1,-1,-1,-1,-1,-1,-1,-1,-1,-1,-1,-1,-1],"split_conditions":[1E0,1E0,1E0,1E0,1E0,9.2308804E-2,-1.1512956E-3,1E0,1E0,1E0,1.3984026E-1,1E0,1E0,1E0,1E0,1E0,-9.227671E-2,1E0,1E0,1E0,1E0,1E0,1.2807597E-1,-1.9478412E-1,-6.6116066E-3,7.6470576E-2,1.0198687E-3,4.8535978E-4,-4.2171877E-2,5.9467023E-3,-1.6563845E-1,7.850542E-2,-2.5293034E-2,-1.06623314E-1,-1.2222796E-2,-2.7177336E-2,6.915362E-2],"split_indices":[144,10,312,122,273,0,0,137,112,261,0,94,62,36,302,124,0,130,84,6,293,3,0,0,0,0,0,0,0,0,0,0,0,0,0,0,0],"split_type":[0,0,0,0,0,0,0,0,0,0,0,0,0,0,0,0,0,0,0,0,0,0,0,0,0,0,0,0,0,0,0,0,0,0,0,0,0],"sum_hessian":[3.863768E2,3.827212E2,3.655607E0,3.7693887E2,5.782319E0,2.1571102E0,1.4984967E0,3.4854428E2,2.83946E1,4.081743E0,1.7005767E0,3.2274118E2,2.5803078E1,2.4027067E1,4.3675337E0,2.6886823E0,1.3930603E0,3.153759E2,7.365311E0,2.2851175E1,2.9519022E0,2.25293E1,1.497766E0,2.373592E0,1.993942E0,1.1913552E0,1.497327E0,3.00203E2,1.5172881E1,4.875623E0,2.4896877E0,1.6854229E1,5.9969463E0,1.4573978E0,1.4945043E0,2.0565195E1,1.9641057E0],"tree_param":{"num_deleted":"0","num_feature":"362","num_nodes":"37","size_leaf_vector":"1"}},{"base_weights":[-1.8742497E-3,1.6050634E-3,-1.2362879E-1,-4.2746095E-3,1.03858165E-1,-3.038685E-1,3.0984807E-1,-2.0321568E-2,5.262164E-2,1.6547088E-1,-8.7832496E-2,-5.3085315E-1,6.338333E-2,1.3593376E-1,1.8487198E-2,6.0980846E-3,-9.555254E-2,1.12529255E-1,-1.0113014E-1,6.1533958E-2,5.043002E-1,-2.1851102E-1,-2.2797845E-2,2.5238529E-2,5.191784E-3,-8.998468E-3,1.3866265E-1,-1.1017112E-1,1.0813123E-1,1.9128966E-1,-3.0009404E-2,-2.3564482E-1,3.9895886E-1,1.8295841E-1,-1.7575751E-1,2.1958032E-1,3.2789804E-2,-1.355081E-2,2.4343822E-2,7.3454514E-2,-5.643262E-2,-4.035161E-2,5.3315137E-2,6.762961E-2,-1.3722149E-1,-3.3014055E-2,5.1304877E-2,-1.05876945E-1,6.818941E-2,1.7097038E-1,3.5680994E-2,7.545146E-2,-5.620457E-2,-8.5167155E-2,2.3412082E-2],"categories":[],"categories_nodes":[],"categories_segments":[],"categories_sizes":[],"default_left":[0,0,0,0,0,0,0,0,0,0,0,0,0,0,0,0,0,0,0,0,0,0,0,0,0,0,0,0,0,0,0,0,0,0,0,0,0,0,0,0,0,0,0,0,0,0,0,0,0,0,0,0,0,0,0],"id":24,"left_children":[1,3,5,7,9,11,13,15,17,19,-1,21,23,-1,-1,25,27,29,31,33,35,-1,-1,-1,-1,37,39,41,-1,43,45,47,49,51,53,-1,-1,-1,-1,-1,-1,-1,-1,-1,-1,-1,-1,-1,-1,-1,-1,-1,-1,-1,-1],"loss_changes":[1.641024E-1,2.2719128E-1,9.349993E-1,3.2756403E-1,5.505618E-1,7.093971E-1,1.02084726E-1,5.564153E-1,7.385653E-1,6.1777383E-1,0E0,4.043355E-1,2.3578256E-3,0E0,0E0,4.173309E-1,5.246139E-1,6.4884984E-1,1.6185278E0,4.7119087E-1,2.963649E-1,0E0,0E0,0E0,0E0,6.153313E-1,7.8573143E-1,5.2304876E-1,0E0,9.233227E-1,3.6076042E-1,1.0839783E0,1.7993748E-1,3.1540793E-1,1.7770302E-1,0E0,0E0,0E0,0E0,0E0,0E0,0E0,0E0,0E0,0E0,0E0,0E0,0E0,0E0,0E0,0E0,0E0,0E0,0E0,0E0],"parents":[2147483647,0,0,1,1,2,2,3,3,4,4,5,5,6,6,7,7,8,8,9,9,11,11,12,12,15,15,16,16,17,17,18,18,19,19,20,20,25,25,26,26,27,27,29,29,30,30,31,31,32,32,33,33,34,34],"right_children":[2,4,6,8,10,12,14,16,18,20,-1,22,24,-1,-1,26,28,30,32,34,36,-1,-1,-1,-1,38,40,42,-1,44,46,48,50,52,54,-1,-1,-1,-1,-1,-1,-1,-1,-1,-1,-1,-1,-1,-1,-1,-1,-1,-1,-1,-1],"split_conditions":[1E0,1E0,1E0,1E0,1E0,1E0,1E0,1E0,1E0,1E0,-8.7832496E-2,1E0,1E0,1.3593376E-1,1.8487198E-2,1E0,1E0,1E0,1E0,1E0,1E0,-2.1851102E-1,-2.2797845E-2,2.5238529E-2,5.191784E-3,1E0,1E0,1E0,1.0813123E-1,1E0,1E0,1E0,1E0,1E0,1E0,2.1958032E-1,3.2789804E-2,-1.355081E-2,2.4343822E-2,7.3454514E-2,-5.643262E-2,-4.035161E-2,5.3315137E-2,6.762961E-2,-1.3722149E-1,-3.3014055E-2,5.1304877E-2,-1.05876945E-1,6.818941E-2,1.7097038E-1,3.5680994E-2,7.545146E-2,-5.620457E-2,-8.5167155E-2,2.3412082E-2],"split_indices":[208,326,112,237,252,56,306,112,121,80,0,211,4,0,0,9,90,80,183,302,124,0,0,0,0,305,224,118,0,29,302,50,273,230,56,0,0,0,0,0,0,0,0,0,0,0,0,0,0,0,0,0,0,0,0],"split_type":[0,0,0,0,0,0,0,0,0,0,0,0,0,0,0,0,0,0,0,0,0,0,0,0,0,0,0,0,0,0,0,0,0,0,0,0,0,0,0,0,0,0,0,0,0,0,0,0,0,0,0,0,0,0,0],"sum_hessian":[3.859108E2,3.7614862E2,9.762177E0,3.566018E2,1.9546825E1,7.1063523E0,2.6558247E0,2.786535E2,7.794831E1,1.7423138E1,2.1236868E0,4.116576E0,2.9897761E0,1.1605735E0,1.4952512E0,2.0690976E2,7.174374E1,5.6285446E1,2.1662865E1,1.4237385E1,3.1857536E0,2.450971E0,1.6656053E0,1.492163E0,1.4976132E0,1.8659258E2,2.0317183E1,7.0249985E1,1.4937514E0,3.6033142E1,2.0252302E1,1.7487772E1,4.1750927E0,9.5695305E0,4.6678543E0,1.4799069E0,1.7058467E0,1.3351715E2,5.3075428E1,1.552347E1,4.7937126E0,6.5266045E1,4.9839377E0,3.485132E1,1.1818254E0,1.4808813E1,5.4434886E0,1.414264E1,3.3451324E0,1.9496865E0,2.225406E0,8.345533E0,1.223997E0,3.1901078E0,1.4777462E0],"tree_param":{"num_deleted":"0","num_feature":"362","num_nodes":"55","size_leaf_vector":"1"}},{"base_weights":[-4.912312E-4,5.9722657E-3,-5.8869205E-2,-1.5420222E-3,1.1746731E-1,-1.1439284E-1,1.06334865E-1,-6.1322767E-3,2.0522156E-1,4.022794E-2,4.9347857E-1,-1.7644957E-1,1.1355524E-1,2.0407505E-1,-7.069543E-2,-1.3006181E-2,1.3125674E-1,1.0423588E-2,3.8578078E-1,1.16800964E-1,-1.3622808E-1,1.7842765E-1,4.9113397E-2,-2.2571355E-1,6.0427982E-2,-3.1686723E-2,9.589061E-2,2.9972532E-1,-4.9752437E-2,-5.563224E-3,-1.9927773E-1,2.1428874E-1,-8.032185E-2,-2.8711708E-2,4.0256593E-2,1.7014685E-1,1.8591486E-2,2.3367532E-1,-8.65744E-2,-2.9915273E-1,-2.1792937E-2,5.164834E-2,-5.7986353E-2,1.2487645E-1,8.1116535E-2,-4.41798E-3,4.4154514E-2,-8.5925125E-2,9.179538E-2,9.098832E-2,-3.1385954E-2,3.556486E-2,1.9648543E-1,-4.777587E-2,3.460052E-2,-5.825209E-2,-2.1332648E-1,-2.6944542E-2,3.9013326E-2,-1.3752072E-2,5.6301538E-2],"categories":[],"categories_nodes":[],"categories_segments":[],"categories_sizes":[],"default_left":[0,0,0,0,0,0,0,0,0,0,0,0,0,0,0,0,0,0,0,0,0,0,0,0,0,0,0,0,0,0,0,0,0,0,0,0,0,0,0,0,0,0,0,0,0,0,0,0,0,0,0,0,0,0,0,0,0,0,0,0,0],"id":25,"left_children":[1,3,5,7,9,11,13,15,17,19,21,23,25,27,-1,29,31,33,35,37,-1,-1,-1,39,-1,41,-1,43,-1,45,47,49,-1,-1,-1,-1,-1,51,53,55,57,-1,-1,-1,59,-1,-1,-1,-1,-1,-1,-1,-1,-1,-1,-1,-1,-1,-1,-1,-1],"loss_changes":[1.4601333E-1,2.9212645E-1,3.6598247E-1,3.1203958E-1,6.195301E-1,4.352372E-1,3.897419E-1,3.0515054E-1,2.471343E-1,7.8555274E-1,2.4967492E-2,4.822337E-1,2.16334E-1,3.4993455E-1,0E0,4.2439258E-1,5.675672E-1,7.146014E-2,1.8086487E-1,4.3742883E-1,0E0,0E0,0E0,3.113854E-1,0E0,1.9637077E-1,0E0,1.4705497E-1,0E0,4.1666955E-1,6.0556114E-1,4.0932375E-1,0E0,0E0,0E0,0E0,0E0,4.7606468E-1,1.2307282E-1,5.334567E-1,8.087244E-2,0E0,0E0,0E0,5.879275E-2,0E0,0E0,0E0,0E0,0E0,0E0,0E0,0E0,0E0,0E0,0E0,0E0,0E0,0E0,0E0,0E0],"parents":[2147483647,0,0,1,1,2,2,3,3,4,4,5,5,6,6,7,7,8,8,9,9,10,10,11,11,12,12,13,13,15,15,16,16,17,17,18,18,19,19,23,23,25,25,27,27,29,29,30,30,31,31,37,37,38,38,39,39,40,40,44,44],"right_children":[2,4,6,8,10,12,14,16,18,20,22,24,26,28,-1,30,32,34,36,38,-1,-1,-1,40,-1,42,-1,44,-1,46,48,50,-1,-1,-1,-1,-1,52,54,56,58,-1,-1,-1,60,-1,-1,-1,-1,-1,-1,-1,-1,-1,-1,-1,-1,-1,-1,-1,-1],"split_conditions":[1E0,1E0,1E0,1E0,1E0,1E0,1E0,1E0,1E0,1E0,1E0,1E0,1E0,1E0,-7.069543E-2,1E0,1E0,1E0,1E0,1E0,-1.3622808E-1,1.7842765E-1,4.9113397E-2,1E0,6.0427982E-2,1E0,9.589061E-2,1E0,-4.9752437E-2,1E0,1E0,1E0,-8.032185E-2,-2.8711708E-2,4.0256593E-2,1.7014685E-1,1.8591486E-2,1E0,1E0,1E0,1E0,5.164834E-2,-5.7986353E-2,1.2487645E-1,1E0,-4.41798E-3,4.4154514E-2,-8.5925125E-2,9.179538E-2,9.098832E-2,-3.1385954E-2,3.556486E-2,1.9648543E-1,-4.777587E-2,3.460052E-2,-5.825209E-2,-2.1332648E-1,-2.6944542E-2,3.9013326E-2,-1.3752072E-2,5.6301538E-2],"split_indices":[61,205,149,197,54,302,253,130,183,4,80,71,312,211,0,196,49,50,318,89,0,0,0,237,0,109,0,183,0,77,30,237,0,0,0,0,0,305,242,187,43,0,0,0,112,0,0,0,0,0,0,0,0,0,0,0,0,0,0,0,0],"split_type":[0,0,0,0,0,0,0,0,0,0,0,0,0,0,0,0,0,0,0,0,0,0,0,0,0,0,0,0,0,0,0,0,0,0,0,0,0,0,0,0,0,0,0,0,0,0,0,0,0,0,0,0,0,0,0,0,0,0,0,0,0],"sum_hessian":[3.8503705E2,3.4746417E2,3.757287E1,3.2644907E2,2.1015099E1,2.8351683E1,9.221185E0,3.203084E2,6.140664E0,1.8352215E1,2.6628835E0,2.2462421E1,5.8892612E0,7.4851756E0,1.736009E0,3.059084E2,1.4400003E1,3.4626653E0,2.6779988E0,1.6551945E1,1.8002694E0,1.4224427E0,1.240441E0,2.0227966E1,2.2344558E0,3.9509418E0,1.9383194E0,6.0981183E0,1.3870575E0,2.95145E2,1.076341E1,1.2302712E1,2.0972912E0,1.9862008E0,1.4764645E0,1.2348233E0,1.4431754E0,1.0416739E1,6.1352053E0,1.4528664E1,5.699302E0,1.7182058E0,2.2327359E0,3.3880231E0,2.7100952E0,2.792934E2,1.5851603E1,9.549586E0,1.2138236E0,9.656576E0,2.6461368E0,9.187419E0,1.2293205E0,4.6666746E0,1.4685308E0,1.275062E1,1.7780437E0,4.218098E0,1.4812042E0,1.4966675E0,1.2134275E0],"tree_param":{"num_deleted":"0","num_feature":"362","num_nodes":"61","size_leaf_vector":"1"}},{"base_weights":[8.4774743E-4,4.3007703E-3,-1.4499828E-1,1.1326885E-3,2.1306299E-1,-4.0904738E-2,-1.3148743E-1,1.2344869E-2,-4.534674E-2,1.01154745E-1,-1.333331E-2,-4.3426502E-2,2.7278773E-2,1.6720826E-2,-2.8537264E-1,-1.3911927E-2,-3.8059032E-1,3.7142877E-2,1.7910781E-4,9.979842E-3,1.6074903E-1,-1.501518E-1,-4.634551E-3,2.3164855E-2,-2.6127237E-1,-6.6072494E-1,9.982955E-3,1.6191773E-2,1.6416304E-3,5.7981694E-3,-4.9531296E-2,1.1643946E-2,1.341932E-1,-1.4574897E-2,7.152776E-2,-3.4423977E-2,-1.9400486E-1,-2.8155795E-1,-1.1401581E-2],"categories":[],"categories_nodes":[],"categories_segments":[],"categories_sizes":[],"default_left":[0,0,0,0,0,0,0,0,0,0,0,0,0,0,0,0,0,0,0,0,0,0,0,0,0,0,0,0,0,0,0,0,0,0,0,0,0,0,0],"id":26,"left_children":[1,3,5,7,9,11,-1,13,15,-1,-1,-1,17,19,21,23,25,27,-1,29,31,-1,-1,33,35,37,-1,-1,-1,-1,-1,-1,-1,-1,-1,-1,-1,-1,-1],"loss_changes":[1.947909E-1,2.4949758E-1,2.5519007E-1,1.9492564E-1,1.9522929E-1,5.8510523E-2,0E0,3.9726216E-1,7.608274E-1,0E0,0E0,0E0,1.4235252E-3,2.8757375E-1,2.4889737E-1,6.2515634E-1,7.4015737E-1,1.833505E-3,0E0,4.7059336E-1,4.4564864E-1,0E0,0E0,9.324404E-1,4.2731243E-1,6.1166525E-1,0E0,0E0,0E0,0E0,0E0,0E0,0E0,0E0,0E0,0E0,0E0,0E0,0E0],"parents":[2147483647,0,0,1,1,2,2,3,3,4,4,5,5,7,7,8,8,12,12,13,13,14,14,15,15,16,16,17,17,19,19,20,20,23,23,24,24,25,25],"right_children":[2,4,6,8,10,12,-1,14,16,-1,-1,-1,18,20,22,24,26,28,-1,30,32,-1,-1,34,36,38,-1,-1,-1,-1,-1,-1,-1,-1,-1,-1,-1,-1,-1],"split_conditions":[1E0,1E0,1E0,1E0,1E0,1E0,-1.3148743E-1,1E0,1E0,1.01154745E-1,-1.333331E-2,-4.3426502E-2,1E0,1E0,1E0,1E0,1E0,1E0,1.7910781E-4,1E0,1E0,-1.501518E-1,-4.634551E-3,1E0,1E0,1E0,9.982955E-3,1.6191773E-2,1.6416304E-3,5.7981694E-3,-4.9531296E-2,1.1643946E-2,1.341932E-1,-1.4574897E-2,7.152776E-2,-3.4423977E-2,-1.9400486E-1,-2.8155795E-1,-1.1401581E-2],"split_indices":[27,320,240,50,112,44,0,199,228,0,0,0,18,42,92,184,280,92,0,201,56,0,0,290,299,15,0,0,0,0,0,0,0,0,0,0,0,0,0],"split_type":[0,0,0,0,0,0,0,0,0,0,0,0,0,0,0,0,0,0,0,0,0,0,0,0,0,0,0,0,0,0,0,0,0,0,0,0,0,0,0],"sum_hessian":[3.8455112E2,3.766052E2,7.945921E0,3.7196585E2,4.6393614E0,6.705514E0,1.2404071E0,3.0026715E2,7.169871E1,2.921688E0,1.7176732E0,2.2125537E0,4.49296E0,2.968478E2,3.4193363E0,6.650429E1,5.1944156E0,2.9940171E0,1.4989431E0,2.8459705E2,1.2250767E1,1.4274178E0,1.9919186E0,5.8623573E1,7.8807178E0,2.74198E0,2.4524353E0,1.4952649E0,1.4987521E0,2.7101758E2,1.3579469E1,9.390448E0,2.8603191E0,4.4549313E1,1.407426E1,6.650173E0,1.2305446E0,1.5454141E0,1.196566E0],"tree_param":{"num_deleted":"0","num_feature":"362","num_nodes":"39","size_leaf_vector":"1"}},{"base_weights":[-9.892146E-4,4.6242187E-3,-8.8422544E-2,8.588803E-3,-1.8355851E-1,-1.5688454E-1,9.882315E-2,1.3436741E-2,-1.5725797E-1,-2.9965356E-1,2.9334756E-2,-2.3142143E-1,7.37726E-2,1.9888906E-2,-1.1096529E-1,1.8909622E-2,-4.5408177E-1,2.3706293E-2,-5.625076E-1,-3.3606717E-1,-4.0219072E-2,1.6155954E-2,2.5232968E-1,-8.234907E-3,-1.5329929E-1,-1.5699866E-1,2.0849577E-1,-1.7453294E-1,-4.8368733E-2,-2.3435162E-1,-2.909265E-2,-4.2041165E-1,-4.6552602E-2,6.965266E-2,-1.10210516E-1,7.7412697E-3,-2.5189219E-2,1.138232E-1,2.9672941E-2,-3.6735736E-2,6.0200244E-2,-6.0440235E-2,-1.2634712E-2,1.1747357E-1,-1.7385237E-2,-1.5850952E-1,-8.11535E-3,-4.4326227E-2,1.8705213E-2,-1.0520198E-2,5.1198345E-2],"categories":[],"categories_nodes":[],"categories_segments":[],"categories_sizes":[],"default_left":[0,0,0,0,0,0,0,0,0,0,0,0,0,0,0,0,0,0,0,0,0,0,0,0,0,0,0,0,0,0,0,0,0,0,0,0,0,0,0,0,0,0,0,0,0,0,0,0,0,0,0],"id":27,"left_children":[1,3,5,7,9,11,-1,13,15,17,-1,19,-1,21,23,25,27,-1,29,31,33,35,37,39,-1,41,43,-1,-1,-1,-1,45,47,49,-1,-1,-1,-1,-1,-1,-1,-1,-1,-1,-1,-1,-1,-1,-1,-1,-1],"loss_changes":[1.8945941E-1,2.723239E-1,7.1784115E-1,2.8863776E-1,2.7532732E-1,6.77982E-1,0E0,2.8086525E-1,5.419514E-1,5.9967864E-1,0E0,3.4606665E-1,0E0,2.8303975E-1,7.055166E-1,2.7822068E-1,4.9763083E-2,0E0,2.719574E-1,2.6072848E-1,2.9491004E-1,3.1778845E-1,6.3109785E-2,3.7669522E-1,0E0,1.3935491E-2,2.1646856E-1,0E0,0E0,0E0,0E0,3.578918E-1,5.0147306E-2,7.420587E-2,0E0,0E0,0E0,0E0,0E0,0E0,0E0,0E0,0E0,0E0,0E0,0E0,0E0,0E0,0E0,0E0,0E0],"parents":[2147483647,0,0,1,1,2,2,3,3,4,4,5,5,7,7,8,8,9,9,11,11,13,13,14,14,15,15,16,16,18,18,19,19,20,20,21,21,22,22,23,23,25,25,26,26,31,31,32,32,33,33],"right_children":[2,4,6,8,10,12,-1,14,16,18,-1,20,-1,22,24,26,28,-1,30,32,34,36,38,40,-1,42,44,-1,-1,-1,-1,46,48,50,-1,-1,-1,-1,-1,-1,-1,-1,-1,-1,-1,-1,-1,-1,-1,-1,-1],"split_conditions":[1E0,1E0,1E0,1E0,1E0,1E0,9.882315E-2,1E0,1E0,1E0,2.9334756E-2,1E0,7.37726E-2,1E0,1E0,1E0,1E0,2.3706293E-2,1E0,1E0,1E0,1E0,1E0,1E0,-1.5329929E-1,1E0,1E0,-1.7453294E-1,-4.8368733E-2,-2.3435162E-1,-2.909265E-2,1E0,1E0,1E0,-1.10210516E-1,7.7412697E-3,-2.5189219E-2,1.138232E-1,2.9672941E-2,-3.6735736E-2,6.0200244E-2,-6.0440235E-2,-1.2634712E-2,1.1747357E-1,-1.7385237E-2,-1.5850952E-1,-8.11535E-3,-4.4326227E-2,1.8705213E-2,-1.0520198E-2,5.1198345E-2],"split_indices":[181,271,30,94,290,46,0,46,84,187,0,121,0,329,270,59,114,0,124,50,112,303,305,261,0,121,112,0,0,0,0,112,92,231,0,0,0,0,0,0,0,0,0,0,0,0,0,0,0,0,0],"split_type":[0,0,0,0,0,0,0,0,0,0,0,0,0,0,0,0,0,0,0,0,0,0,0,0,0,0,0,0,0,0,0,0,0,0,0,0,0,0,0,0,0,0,0,0,0,0,0,0,0,0,0],"sum_hessian":[3.8418762E2,3.6189987E2,2.2287745E1,3.5536746E2,6.5324287E0,1.9686617E1,2.6011262E0,3.4616745E2,9.199988E0,4.578164E0,1.9542645E0,1.69715E1,2.7151182E0,3.298973E2,1.6270144E1,6.360982E0,2.8390064E0,2.1623697E0,2.4157944E0,1.0478776E1,6.4927235E0,3.2573557E2,4.161742E0,1.3757684E1,2.5124593E0,3.3886743E0,2.972308E0,1.2899544E0,1.549052E0,1.182394E0,1.2334003E0,7.764587E0,2.7141893E0,5.4495926E0,1.0431309E0,2.977815E2,2.7954077E1,1.4705952E0,2.6911469E0,9.162118E0,4.595566E0,1.8996748E0,1.4889994E0,1.4833943E0,1.4889137E0,5.8232517E0,1.941335E0,1.2219303E0,1.4922589E0,2.9961638E0,2.4534287E0],"tree_param":{"num_deleted":"0","num_feature":"362","num_nodes":"51","size_leaf_vector":"1"}},{"base_weights":[-2.1091844E-3,4.849129E-4,-1.8444087E-1,-1.4656051E-3,6.854889E-2,-2.9138324E-1,3.2776535E-2,1.5630454E-3,-1.7106444E-1,-1.1937854E-1,-1.7216569E-2,-7.6689647E-4,1.875734E-1,-2.3218326E-1,7.147495E-3,5.623679E-3,-7.099678E-2,8.459769E-2,-1.6294314E-3,-2.7659234E-1,-2.2098325E-2,3.5147292E-3,-3.367374E-2,-7.5290822E-3,-1.4271405E-1,-1.0262657E-1,-2.2506667E-2],"categories":[],"categories_nodes":[],"categories_segments":[],"categories_sizes":[],"default_left":[0,0,0,0,0,0,0,0,0,0,0,0,0,0,0,0,0,0,0,0,0,0,0,0,0,0,0],"id":28,"left_children":[1,3,5,7,-1,9,-1,11,13,-1,-1,15,17,19,-1,21,23,-1,-1,25,-1,-1,-1,-1,-1,-1,-1],"loss_changes":[1.8204251E-1,1.6946566E-1,2.014088E-1,1.9445954E-1,0E0,8.263472E-2,0E0,1.61547E-1,8.4646E-2,0E0,0E0,1.659229E-1,8.556317E-2,1.5875965E-2,0E0,2.4472106E-1,5.6084466E-1,0E0,0E0,2.2647887E-2,0E0,0E0,0E0,0E0,0E0,0E0,0E0],"parents":[2147483647,0,0,1,1,2,2,3,3,5,5,7,7,8,8,11,11,12,12,13,13,15,15,16,16,19,19],"right_children":[2,4,6,8,-1,10,-1,12,14,-1,-1,16,18,20,-1,22,24,-1,-1,26,-1,-1,-1,-1,-1,-1,-1],"split_conditions":[1E0,1E0,1E0,1E0,6.854889E-2,1E0,3.2776535E-2,1E0,1E0,-1.1937854E-1,-1.7216569E-2,1E0,1E0,1E0,7.147495E-3,1E0,1E0,8.459769E-2,-1.6294314E-3,1E0,-2.2098325E-2,3.5147292E-3,-3.367374E-2,-7.5290822E-3,-1.4271405E-1,-1.0262657E-1,-2.2506667E-2],"split_indices":[45,325,185,313,0,270,0,144,89,0,0,0,312,302,0,85,311,0,0,99,0,0,0,0,0,0,0],"split_type":[0,0,0,0,0,0,0,0,0,0,0,0,0,0,0,0,0,0,0,0,0,0,0,0,0,0,0],"sum_hessian":[3.8369006E2,3.792911E2,4.3989677E0,3.7705914E2,2.2319715E0,3.2305245E0,1.1684434E0,3.7141727E2,5.641886E0,1.7383918E0,1.4921327E0,3.6780603E2,3.6112142E0,4.1492805E0,1.4926056E0,3.3797217E2,2.9833885E1,2.115324E0,1.4958901E0,2.6594367E0,1.4898438E0,3.2221887E2,1.575328E1,2.7748837E1,2.0850477E0,1.4810724E0,1.1783643E0],"tree_param":{"num_deleted":"0","num_feature":"362","num_nodes":"27","size_leaf_vector":"1"}},{"base_weights":[-2.2041781E-3,-6.4883833E-3,9.249561E-2,-2.9848176E-3,-1.873093E-1,-4.4086058E-2,3.3786392E-1,4.5627733E-3,-7.293161E-2,-6.039652E-2,-1.3658087E-1,4.418782E-2,-1.0729794E-1,3.9807054E-1,1.2487925E-2,-2.7991824E-3,9.421546E-2,-1.33362515E-2,-4.778075E-1,-1.2408056E-1,2.3028336E-2,2.0416513E-1,-8.0950394E-2,1.453742E-1,3.50842E-2,-1.29649E-2,9.841278E-2,1.57465E-1,-1.4653215E-1,2.774602E-2,-1.5993635E-1,-2.0349735E-1,-2.9934987E-2,-5.505454E-2,9.332422E-3,3.5405713E-1,-3.5257156E-3,-1.6968511E-3,-7.9583034E-2,4.392412E-2,-8.529084E-2,8.866268E-3,1.3435663E-1,-4.839202E-3,-9.30606E-2,-1.3793308E-2,7.897049E-2,1.5789154E-1,3.243313E-2,-1.0207597E-2,8.527307E-3],"categories":[],"categories_nodes":[],"categories_segments":[],"categories_sizes":[],"default_left":[0,0,0,0,0,0,0,0,0,0,0,0,0,0,0,0,0,0,0,0,0,0,0,0,0,0,0,0,0,0,0,0,0,0,0,0,0,0,0,0,0,0,0,0,0,0,0,0,0,0,0],"id":29,"left_children":[1,3,5,7,9,11,13,15,17,19,-1,21,-1,23,-1,25,27,29,31,33,-1,35,-1,-1,-1,37,39,41,43,45,-1,-1,-1,-1,-1,47,49,-1,-1,-1,-1,-1,-1,-1,-1,-1,-1,-1,-1,-1,-1],"loss_changes":[1.5660496E-1,2.3308967E-1,5.748359E-1,1.9187497E-1,2.1035331E-1,3.3739808E-1,9.2050135E-2,2.1702848E-1,8.476788E-1,6.1051644E-2,0E0,5.5524546E-1,0E0,6.358409E-2,0E0,3.1454355E-1,4.0300924E-1,6.9561523E-1,2.7438807E-1,4.6391845E-2,0E0,2.2430569E-1,0E0,0E0,0E0,5.103506E-1,5.542827E-1,7.3862827E-1,1.1684882E-1,5.4158187E-1,0E0,0E0,0E0,0E0,0E0,1.19820476E-1,4.858775E-3,0E0,0E0,0E0,0E0,0E0,0E0,0E0,0E0,0E0,0E0,0E0,0E0,0E0,0E0],"parents":[2147483647,0,0,1,1,2,2,3,3,4,4,5,5,6,6,7,7,8,8,9,9,11,11,13,13,15,15,16,16,17,17,18,18,19,19,21,21,25,25,26,26,27,27,28,28,29,29,35,35,36,36],"right_children":[2,4,6,8,10,12,14,16,18,20,-1,22,-1,24,-1,26,28,30,32,34,-1,36,-1,-1,-1,38,40,42,44,46,-1,-1,-1,-1,-1,48,50,-1,-1,-1,-1,-1,-1,-1,-1,-1,-1,-1,-1,-1,-1],"split_conditions":[1E0,1E0,1E0,1E0,1E0,1E0,1E0,1E0,1E0,1E0,-1.3658087E-1,1E0,-1.0729794E-1,1E0,1.2487925E-2,1E0,1E0,1E0,1E0,1E0,2.3028336E-2,1E0,-8.0950394E-2,1.453742E-1,3.50842E-2,1E0,1E0,1E0,1E0,1E0,-1.5993635E-1,-2.0349735E-1,-2.9934987E-2,-5.505454E-2,9.332422E-3,1E0,1E0,-1.6968511E-3,-7.9583034E-2,4.392412E-2,-8.529084E-2,8.866268E-3,1.3435663E-1,-4.839202E-3,-9.30606E-2,-1.3793308E-2,7.897049E-2,1.5789154E-1,3.243313E-2,-1.0207597E-2,8.527307E-3],"split_indices":[113,226,43,242,6,187,270,190,305,50,0,293,0,19,0,185,210,311,270,302,0,305,0,0,0,94,116,112,89,299,0,0,0,0,0,273,92,0,0,0,0,0,0,0,0,0,0,0,0,0,0],"split_type":[0,0,0,0,0,0,0,0,0,0,0,0,0,0,0,0,0,0,0,0,0,0,0,0,0,0,0,0,0,0,0,0,0,0,0,0,0,0,0,0,0,0,0,0,0,0,0,0,0,0,0],"sum_hessian":[3.8351984E2,3.6781158E2,1.5708259E1,3.6181757E2,5.994029E0,1.0618121E1,5.0901375E0,3.2742194E2,3.439561E1,4.8990893E0,1.0949396E0,8.956007E0,1.6621147E0,3.9446766E0,1.1454611E0,3.034708E2,2.395115E1,3.0882786E1,3.5128264E0,3.4107692E0,1.4883204E0,6.165076E0,2.7909307E0,2.4630048E0,1.4816717E0,2.7656458E2,2.6906208E1,1.924184E1,4.709309E0,2.9497972E1,1.384813E0,1.7762488E0,1.7365776E0,2.3342588E0,1.0765104E0,3.1714706E0,2.9936051E0,2.697725E2,6.7920947E0,2.4456287E1,2.4499216E0,1.4122817E1,5.1190243E0,3.2324555E0,1.4768538E0,2.3077833E1,6.4201407E0,1.1947889E0,1.9766817E0,1.4983366E0,1.4952686E0],"tree_param":{"num_deleted":"0","num_feature":"362","num_nodes":"51","size_leaf_vector":"1"}},{"base_weights":[-2.5590719E-3,-1.7385867E-4,-1.7132846E-1,2.7165213E-3,-1.369059E-1,-2.8142613E-1,1.3780628E-2,5.733985E-3,-1.4258002E-1,-4.247825E-2,-1.0943926E-1,-3.0152014E-2,-1.1341693E-1,1.5653808E-3,1.3462608E-1,-1.6299958E-3,-1.2110818E-1,1.5462022E-2,-4.996796E-2,-5.1621897E-3,7.122823E-2,1.5064979E-3,1.5161084E-1,6.561803E-2,-3.6787905E-2,1.6997905E-2,-1.1329731E-2,3.8865143E-3,-1.4474693E-2,4.7853842E-2,-7.611084E-2,1.8622544E-2,-6.655763E-2,3.54159E-2,-6.989106E-3],"categories":[],"categories_nodes":[],"categories_segments":[],"categories_sizes":[],"default_left":[0,0,0,0,0,0,0,0,0,0,0,0,0,0,0,0,0,0,0,0,0,0,0,0,0,0,0,0,0,0,0,0,0,0,0],"id":30,"left_children":[1,3,5,7,9,11,-1,13,15,17,-1,-1,-1,19,21,23,-1,25,-1,27,29,31,-1,33,-1,-1,-1,-1,-1,-1,-1,-1,-1,-1,-1],"loss_changes":[1.5456457E-1,1.5042661E-1,1.4092293E-1,1.6426593E-1,1.5406486E-1,2.6540995E-2,0E0,1.9653937E-1,2.7991533E-1,5.0764486E-2,0E0,0E0,0E0,1.670813E-1,5.6483763E-1,5.650075E-2,0E0,1.4166113E-2,0E0,2.545799E-1,9.410911E-1,1.4142348E-1,0E0,2.3632783E-2,0E0,0E0,0E0,0E0,0E0,0E0,0E0,0E0,0E0,0E0,0E0],"parents":[2147483647,0,0,1,1,2,2,3,3,4,4,5,5,7,7,8,8,9,9,13,13,14,14,15,15,17,17,19,19,20,20,21,21,23,23],"right_children":[2,4,6,8,10,12,-1,14,16,18,-1,-1,-1,20,22,24,-1,26,-1,28,30,32,-1,34,-1,-1,-1,-1,-1,-1,-1,-1,-1,-1,-1],"split_conditions":[1E0,1E0,1E0,1E0,1E0,1E0,1.3780628E-2,1E0,1E0,1E0,-1.0943926E-1,-3.0152014E-2,-1.1341693E-1,1E0,1E0,1E0,-1.2110818E-1,1E0,-4.996796E-2,1E0,1E0,1E0,1.5161084E-1,1E0,-3.6787905E-2,1.6997905E-2,-1.1329731E-2,3.8865143E-3,-1.4474693E-2,4.7853842E-2,-7.611084E-2,1.8622544E-2,-6.655763E-2,3.54159E-2,-6.989106E-3],"split_indices":[45,27,237,17,240,293,0,309,2,237,0,0,0,55,92,237,0,305,0,124,121,59,0,183,0,0,0,0,0,0,0,0,0,0,0],"split_type":[0,0,0,0,0,0,0,0,0,0,0,0,0,0,0,0,0,0,0,0,0,0,0,0,0,0,0,0,0,0,0,0,0,0,0],"sum_hessian":[3.8303677E2,3.7868585E2,4.3509264E0,3.7180637E2,6.879486E0,2.691632E0,1.6592942E0,3.6518292E2,6.6234446E0,5.702877E0,1.176609E0,1.6473812E0,1.044251E0,3.547227E2,1.0460231E1,4.9549766E0,1.6684681E0,4.484306E0,1.2185714E0,3.2432724E2,3.039545E1,8.435451E0,2.02478E0,3.4790542E0,1.4759222E0,2.491466E0,1.9928397E0,2.288142E2,9.551303E1,2.4301704E1,6.0937467E0,7.204059E0,1.2313913E0,1.9823297E0,1.4967244E0],"tree_param":{"num_deleted":"0","num_feature":"362","num_nodes":"35","size_leaf_vector":"1"}},{"base_weights":[-2.7079745E-3,1.590778E-4,-1.2834793E-1,6.117164E-3,-6.736624E-2,-2.0826975E-1,2.717855E-2,5.195404E-4,9.8452725E-2,-4.157891E-2,-1.18206635E-1,-3.018852E-1,2.0459728E-2,5.550626E-3,-2.0202515E-1,1.5964642E-1,-1.17075145E-1,6.170229E-3,-2.0017934E-1,-1.7082852E-1,-4.3650888E-2,2.9129302E-5,1.7579332E-1,-3.4550515E-1,6.298189E-2,1.9681875E-1,-5.827047E-2,7.685018E-2,-1.57962E-1,-3.2743648E-1,4.73233E-2,-3.586671E-2,1.2091528E-2,-1.9556459E-3,5.712725E-2,6.97682E-2,-1.8593686E-2,-1.4910597E-1,-3.3360038E-2,3.8676895E-2,1.2190352E-1,3.6861144E-2,-4.72742E-2,2.7483362E-3,-9.207034E-2,-1.387327E-1,3.9722E-3],"categories":[],"categories_nodes":[],"categories_segments":[],"categories_sizes":[],"default_left":[0,0,0,0,0,0,0,0,0,0,0,0,0,0,0,0,0,0,0,0,0,0,0,0,0,0,0,0,0,0,0,0,0,0,0,0,0,0,0,0,0,0,0,0,0,0,0],"id":31,"left_children":[1,3,5,7,9,11,-1,13,15,17,-1,19,-1,21,23,25,-1,27,29,-1,31,33,35,37,-1,39,-1,41,43,45,-1,-1,-1,-1,-1,-1,-1,-1,-1,-1,-1,-1,-1,-1,-1,-1,-1],"loss_changes":[1.3827363E-1,1.517824E-1,1.6872625E-1,1.791197E-1,2.4128772E-1,1.9081417E-1,0E0,3.352011E-1,6.546871E-1,2.2440529E-1,0E0,3.27333E-1,0E0,3.0161226E-1,5.4379785E-1,2.7914062E-1,0E0,2.8615203E-1,3.6361262E-1,0E0,2.8250743E-2,3.8995102E-1,1.5046743E-1,1.6807586E-1,0E0,1.904456E-1,0E0,2.047418E-1,1.8792877E-1,2.5346303E-1,0E0,0E0,0E0,0E0,0E0,0E0,0E0,0E0,0E0,0E0,0E0,0E0,0E0,0E0,0E0,0E0,0E0],"parents":[2147483647,0,0,1,1,2,2,3,3,4,4,5,5,7,7,8,8,9,9,11,11,13,13,14,14,15,15,17,17,18,18,20,20,21,21,22,22,23,23,25,25,27,27,28,28,29,29],"right_children":[2,4,6,8,10,12,-1,14,16,18,-1,20,-1,22,24,26,-1,28,30,-1,32,34,36,38,-1,40,-1,42,44,46,-1,-1,-1,-1,-1,-1,-1,-1,-1,-1,-1,-1,-1,-1,-1,-1,-1],"split_conditions":[1E0,1E0,1E0,1E0,1E0,1E0,2.717855E-2,1E0,1E0,1E0,-1.18206635E-1,1E0,2.0459728E-2,1E0,1E0,1E0,-1.17075145E-1,1E0,1E0,-1.7082852E-1,1E0,1E0,1E0,1E0,6.298189E-2,1E0,-5.827047E-2,1E0,1E0,1E0,4.73233E-2,-3.586671E-2,1.2091528E-2,-1.9556459E-3,5.712725E-2,6.97682E-2,-1.8593686E-2,-1.4910597E-1,-3.3360038E-2,3.8676895E-2,1.2190352E-1,3.6861144E-2,-4.72742E-2,2.7483362E-3,-9.207034E-2,-1.387327E-1,3.9722E-3],"split_indices":[198,25,230,254,85,99,0,295,299,261,0,92,0,275,213,116,0,270,293,0,54,319,293,187,0,131,0,253,224,109,0,0,0,0,0,0,0,0,0,0,0,0,0,0,0,0,0],"split_type":[0,0,0,0,0,0,0,0,0,0,0,0,0,0,0,0,0,0,0,0,0,0,0,0,0,0,0,0,0,0,0,0,0,0,0,0,0,0,0,0,0,0,0,0,0,0,0],"sum_hessian":[3.828061E2,3.7524194E2,7.564133E0,3.4565274E2,2.9589209E1,5.577062E0,1.9870713E0,3.268442E2,1.8808527E1,2.8469051E1,1.1201576E0,4.0976276E0,1.4794346E0,3.198714E2,6.9728136E0,1.7313871E1,1.4946554E0,2.2620033E1,5.8490186E0,1.4206654E0,2.6769621E0,3.1079163E2,9.079762E0,5.2912793E0,1.6815346E0,1.6069708E1,1.244163E0,1.618297E1,6.4370637E0,4.3777275E0,1.4712908E0,1.1831998E0,1.4937623E0,3.0139212E2,9.399529E0,7.347492E0,1.7322707E0,2.532422E0,2.758857E0,1.3356816E1,2.7128916E0,1.3925233E1,2.257736E0,3.4756086E0,2.9614549E0,2.8792844E0,1.4984432E0],"tree_param":{"num_deleted":"0","num_feature":"362","num_nodes":"47","size_leaf_vector":"1"}},{"base_weights":[-3.210419E-3,-7.022389E-3,8.15767E-2,-1.2096163E-2,8.245186E-2,-2.899914E-2,2.783618E-1,-2.0320004E-2,6.440262E-2,1.5373367E-1,-2.2764483E-1,4.49644E-2,-8.872943E-2,3.2583666E-1,2.3763815E-2,-2.843123E-2,8.8830754E-2,1.2115683E-1,-3.8183615E-1,5.4124996E-2,1.5007356E-1,-1.06924154E-1,-6.982419E-5,1.7386179E-1,-6.340009E-2,1.299269E-1,2.5250625E-2,-3.465069E-2,1.4930134E-1,8.336641E-3,3.7619966E-1,6.107189E-2,3.9689958E-1,-1.4913769E-1,-4.799606E-2,1.2000015E-1,-5.5736877E-2,3.0404174E-1,-4.3355413E-3,-1.4781065E-2,1.1421021E-2,9.076044E-3,1.2854087E-1,2.1576144E-2,-1.18007906E-1,1.6616744E-1,2.4792638E-2,2.731477E-2,-1.0290889E-1,1.6497175E-1,1.2717172E-2,7.862272E-2,-4.7525194E-2,1.3748941E-1,2.6805526E-2,-8.717152E-3,6.6461274E-3],"categories":[],"categories_nodes":[],"categories_segments":[],"categories_sizes":[],"default_left":[0,0,0,0,0,0,0,0,0,0,0,0,0,0,0,0,0,0,0,0,0,0,0,0,0,0,0,0,0,0,0,0,0,0,0,0,0,0,0,0,0,0,0,0,0,0,0,0,0,0,0,0,0,0,0,0,0],"id":32,"left_children":[1,3,5,7,9,11,13,15,17,19,21,23,-1,25,-1,27,29,31,33,35,-1,-1,-1,37,-1,-1,-1,39,41,43,45,47,49,-1,-1,51,-1,53,55,-1,-1,-1,-1,-1,-1,-1,-1,-1,-1,-1,-1,-1,-1,-1,-1,-1,-1],"loss_changes":[1.2449199E-1,1.6798225E-1,3.6874503E-1,2.208465E-1,4.7414207E-1,2.4055631E-1,3.1460226E-2,2.8216293E-1,9.1020525E-1,5.5108213E-1,1.20458946E-1,3.633262E-1,0E0,8.20055E-2,0E0,3.3100176E-1,5.0784874E-1,4.8974994E-1,2.5074482E-2,2.4564154E-1,0E0,0E0,0E0,1.6663113E-1,0E0,0E0,0E0,3.0551574E-1,3.2450867E-1,4.9517113E-1,2.0518368E-1,3.5412073E-1,2.6789695E-1,0E0,0E0,5.0413287E-1,0E0,9.589103E-2,3.2593992E-3,0E0,0E0,0E0,0E0,0E0,0E0,0E0,0E0,0E0,0E0,0E0,0E0,0E0,0E0,0E0,0E0,0E0,0E0],"parents":[2147483647,0,0,1,1,2,2,3,3,4,4,5,5,6,6,7,7,8,8,9,9,10,10,11,11,13,13,15,15,16,16,17,17,18,18,19,19,23,23,27,27,28,28,29,29,30,30,31,31,32,32,35,35,37,37,38,38],"right_children":[2,4,6,8,10,12,14,16,18,20,22,24,-1,26,-1,28,30,32,34,36,-1,-1,-1,38,-1,-1,-1,40,42,44,46,48,50,-1,-1,52,-1,54,56,-1,-1,-1,-1,-1,-1,-1,-1,-1,-1,-1,-1,-1,-1,-1,-1,-1,-1],"split_conditions":[1E0,1E0,1E0,1E0,1E0,1E0,1E0,1E0,1E0,1E0,1E0,1E0,-8.872943E-2,1E0,2.3763815E-2,1E0,1E0,1E0,1E0,1E0,1.5007356E-1,-1.06924154E-1,-6.982419E-5,1E0,-6.340009E-2,1.299269E-1,2.5250625E-2,1E0,1E0,1E0,1E0,1E0,1E0,-1.4913769E-1,-4.799606E-2,1E0,-5.5736877E-2,1E0,1E0,-1.4781065E-2,1.1421021E-2,9.076044E-3,1.2854087E-1,2.1576144E-2,-1.18007906E-1,1.6616744E-1,2.4792638E-2,2.731477E-2,-1.0290889E-1,1.6497175E-1,1.2717172E-2,7.862272E-2,-4.7525194E-2,1.3748941E-1,2.6805526E-2,-8.717152E-3,6.6461274E-3],"split_indices":[113,326,43,71,71,187,99,44,211,80,56,293,0,124,0,309,270,14,112,187,0,0,0,305,0,0,0,32,92,238,273,228,299,0,0,302,0,92,92,0,0,0,0,0,0,0,0,0,0,0,0,0,0,0,0,0,0],"split_type":[0,0,0,0,0,0,0,0,0,0,0,0,0,0,0,0,0,0,0,0,0,0,0,0,0,0,0,0,0,0,0,0,0,0,0,0,0,0,0,0,0,0,0,0,0,0,0,0,0,0,0,0,0,0,0,0,0],"sum_hessian":[3.8240604E2,3.6683075E2,1.5575281E1,3.4796375E2,1.8867006E1,1.0517827E1,5.057454E0,3.1485077E2,3.311299E1,1.575065E1,3.1163568E0,8.885637E0,1.6321892E0,3.570212E0,1.4872423E0,2.937603E2,2.1090435E1,3.0023048E1,3.0899432E0,1.31319275E1,2.6187227E0,1.62753E0,1.4888268E0,6.1262608E0,2.7593768E0,1.9241722E0,1.6460398E0,2.8460605E2,9.154286E0,1.727937E1,3.8110662E0,2.5654383E1,4.3686643E0,1.2167853E0,1.8731579E0,1.0695111E1,2.436816E0,